闹剧 -0.582755 1.555074 1.112080 -1.009852 -1.839364 1.879297 0.838436 1.663096 0.994457 -2.571769 -1.898876 -5.338221 0.364173 -4.084442 3.915685 3.553845 0.001582 -2.760423 -1.405406 -0.765824 0.070697 4.088812 -6.171045 -1.122791 0.346871 -2.904063 -2.760195 -0.054692 -0.453576 -5.794408 -0.164793 -2.223870 1.472028 1.952713 -2.433033 -3.186600 -0.531436 0.493381 -2.985126 -1.174819 -3.572753 0.192645 0.758141 3.935417 1.074861 0.625880 2.220114 -2.094385 -0.154573 0.423978 1.652756 -0.855673 1.153559 -0.275303 -0.439654 -1.482219 -2.248376 0.213816 2.229308 -1.885387 1.278554 5.119167 2.883175 2.305720 0.351021 -2.085958 0.600627 -3.289106 -4.888595 2.066435 1.525511 2.633376 -3.573888 5.997416 4.264878 -0.913545 0.059636 -2.937513 2.159472 4.430601 2.354250 -2.675963 -1.629098 2.637268 1.610062 -0.530358 4.191035 1.804440 4.399393 -0.905372 2.818449 -2.694725 -2.065924 -1.246030 1.350879 3.695391 0.855933 1.315789 -2.692335 0.480634
锄头 -1.788208 0.062421 -1.904475 1.796028 0.656774 -1.875562 -1.933659 0.410646 1.693163 0.254326 -0.949485 -1.450840 3.070113 0.467311 2.722315 -0.374698 2.319822 0.221578 1.297107 0.326457 -3.050987 -3.251260 1.289200 0.265793 3.349216 1.524435 -3.866893 -0.701321 -4.553533 -0.177698 0.813020 -0.327051 -0.069620 1.251787 -0.428431 0.228255 1.166534 -5.184020 3.277734 -3.012863 -1.656727 -0.535831 -1.759824 0.211894 -0.966533 -0.642723 0.832234 -0.152984 3.264183 -0.055993 -3.686162 -2.198651 1.199455 -2.862980 0.363200 1.281407 -1.944465 -2.913857 3.194377 -0.197740 -0.004167 -0.089896 -2.308408 0.623228 -2.592457 -0.722873 0.125080 0.258841 -1.951817 -3.073129 -0.432270 2.616830 -1.256458 -4.033904 0.757404 2.407524 6.043749 -2.882884 -2.923929 7.505639 -3.166041 -3.565799 0.586016 -0.440986 1.549850 -1.525002 3.581033 0.782399 3.810032 -2.935338 2.843660 -0.840279 -3.508219 -2.256059 1.021341 3.395222 -0.708322 -1.529075 1.137677 -0.132118
审讯 3.202810 -2.332246 -2.142061 2.941257 -1.415629 5.649744 1.155551 3.731690 -1.835214 2.074510 -0.864392 -2.129404 -0.843253 -2.741476 5.228904 -1.107328 4.689197 -1.184722 -2.839888 -2.479112 4.847726 -1.702788 -3.635490 2.778957 -3.770691 -1.224114 -5.364079 5.180677 -3.469824 -6.593535 7.184885 0.038572 -1.098180 -1.874677 -0.429164 5.655111 -0.661877 2.049105 -0.366534 2.223310 -3.226215 0.291922 -1.816732 0.672238 5.643338 7.045691 0.501360 0.739575 -3.866789 -5.083082 -2.289601 -0.727112 -3.966561 -5.822599 -4.872675 -1.255846 -1.052825 -1.499724 -2.726776 -4.305175 1.082746 -0.395311 1.163100 -2.380812 -0.943051 0.136797 -5.003243 2.553250 -2.652227 0.906641 5.986189 -1.570648 -5.531643 -1.533891 2.300422 -3.190752 0.439034 0.119323 2.609379 2.526826 4.278345 0.039937 0.579918 -0.540888 0.288047 -1.287523 3.921157 4.443224 -5.069301 -0.021233 0.436120 2.189597 2.009810 0.953386 2.414906 -2.080209 -1.397822 -2.455178 2.392785 -3.030577
鼎 4.440870 0.357026 -4.792346 -1.489103 -0.001555 -3.341182 -0.947054 -2.687142 -0.921843 -1.824166 2.495734 -3.624834 -1.266642 2.198134 3.077501 1.377699 -1.297510 0.238703 1.994350 -2.194752 -3.211960 3.693013 -1.455987 1.962361 0.788481 1.087569 -1.747634 1.281050 -3.045388 5.899170 1.085223 3.912842 3.060140 1.238427 2.098749 0.487042 0.366299 0.612903 -1.003860 -0.646050 0.320882 1.203280 0.392121 -5.746984 -4.609791 -0.957069 0.564473 1.628286 1.121324 0.288012 -1.829275 2.501536 -3.868901 1.949951 5.547704 -2.253284 -1.272615 1.312261 -0.538814 -2.120957 -0.214503 3.713535 -0.305672 3.149983 1.097018 -2.401130 -0.828470 2.150238 2.718144 2.779884 1.203332 1.296831 2.238559 -1.161943 -0.012781 0.298055 0.645709 2.030275 -0.828589 2.295834 0.390642 0.763235 0.014528 5.140547 -1.338655 0.901421 2.514149 0.238503 -2.295023 -0.430089 -0.306456 1.004265 -3.751556 -1.627875 -1.444900 1.776616 1.232161 -3.899696 1.655432 1.737440
磨坊主 -0.013111 -0.011769 -0.301187 0.051241 0.008300 0.184043 0.094738 0.049332 0.041536 -0.045578 0.023823 -0.091040 0.051101 -0.029713 -0.117327 -0.012260 -0.065102 -0.147278 -0.022543 0.026294 0.015790 0.023870 -0.029149 -0.081796 -0.190306 0.090404 -0.024063 -0.079414 -0.196528 -0.009570 -0.116701 -0.094408 0.045019 0.094691 0.110010 -0.089099 -0.083759 -0.003894 0.224881 -0.001932 -0.178612 0.104343 0.005697 -0.084543 -0.031249 0.060227 -0.043169 -0.072682 0.105445 0.036745 -0.142638 -0.101722 -0.018665 0.082717 0.092599 0.098263 0.088277 -0.025092 0.059098 0.027084 -0.235094 0.121800 -0.002369 0.040793 -0.054613 -0.050933 -0.114745 -0.113968 -0.154193 0.030815 -0.019684 0.092255 -0.033231 -0.128082 -0.006624 0.020072 0.089311 0.084216 -0.086285 0.069762 0.103210 -0.247317 -0.059650 0.177514 -0.000944 0.055114 0.014210 -0.137059 0.034823 -0.047880 -0.063988 -0.123665 -0.130799 0.017746 0.046033 0.114742 0.026187 0.050604 -0.045589 0.074303
情事 2.099059 -1.566256 0.571681 -2.944510 0.529866 2.499460 1.734523 3.927738 -0.043948 2.978616 -1.167726 -1.391869 5.443312 -1.712113 5.405953 -0.516354 -2.748708 -3.304923 3.615969 -1.236652 3.336773 1.589944 -3.653748 3.227448 -4.506949 -0.538991 -4.656411 -3.776186 -0.093361 -0.252632 0.954827 0.588553 -0.200462 0.672050 -1.182890 2.142493 -3.994369 -0.732512 -3.287364 0.024651 1.800771 4.446904 -0.607540 0.020605 0.931175 2.840138 -0.530922 -3.301776 1.836058 -2.417620 0.621182 -1.685758 2.145888 3.154580 0.144544 -7.509761 -5.517659 1.941343 0.227473 -2.867401 4.314779 0.364428 2.803427 -0.160999 3.019769 -1.873452 1.741774 -2.398067 -3.670199 0.502720 3.384415 2.512596 0.448473 -3.643874 -1.200486 1.356847 2.002904 2.260071 1.191559 5.831614 2.961198 -0.296347 -0.807394 -3.731703 2.390633 -1.333040 -1.025732 1.696437 -3.113808 -0.784722 1.451026 -1.077203 -2.165199 1.079934 -1.790905 6.917913 -0.173765 0.517219 -12.389863 -6.593117
周 -1.551342 -4.598177 -3.225302 -6.172138 0.291885 1.438335 4.477737 1.017642 -0.816750 -7.530649 -4.933620 -8.500116 -3.002212 -4.699383 0.647091 -1.018297 4.926503 -4.435615 1.051201 -5.081142 -8.418344 -4.837227 2.683813 -1.908633 4.891271 3.340992 1.974198 1.026182 -0.145657 0.048821 -1.012922 0.200888 -3.687439 0.824981 -6.708716 -1.388154 4.861642 -1.253566 -1.132996 1.207540 -8.641538 -3.249528 -2.602702 -10.681217 1.835527 1.388538 4.451890 -2.934599 -1.223814 3.152363 -3.781668 7.356112 -3.476697 -4.132966 -5.689867 -0.191352 1.431134 -6.247808 -12.158809 3.370631 2.287538 -0.733232 0.859795 0.375012 -0.185813 -2.531369 -2.115665 5.219209 3.504624 1.772675 -6.483863 -5.997162 3.481193 -0.483031 -3.825382 4.561650 -4.207189 -12.777527 7.705000 -4.894528 10.775486 -4.701146 2.700712 -2.790345 1.625123 -4.632072 -1.742549 -7.396684 -7.183936 -6.694404 -6.429190 5.484450 -0.850964 -5.754053 1.362934 1.623318 12.480552 0.329267 -0.065819 6.538986
将军 -1.106233 4.019910 -2.840681 -0.018400 0.525421 2.853182 1.768657 -2.211907 -2.630633 2.057330 0.299125 -1.816983 -3.312081 -0.880721 -1.657719 1.843784 -3.371446 -3.000534 -2.583902 -0.183681 -2.569363 1.398326 4.301393 1.765781 -0.114843 -2.222415 0.675146 -4.739269 -5.274688 -4.829887 -2.880535 1.339909 -0.713425 1.800371 5.795572 4.039095 -0.005280 -2.994313 0.961084 -0.302684 -3.995986 -1.959430 -0.367793 -0.675605 -1.388442 2.072678 2.788644 5.691522 2.054075 1.012007 -5.663705 1.589093 -2.240199 -2.705912 1.404429 -1.453686 2.241560 1.001773 1.660652 1.508121 -2.194238 -2.080147 3.275201 0.954875 0.339346 -1.221339 -0.953625 5.690400 -1.714193 -1.432060 4.931591 2.311795 0.319198 -2.097608 -0.324273 -2.183534 -1.497410 -1.389083 -5.486182 3.816169 3.317048 1.206990 -4.493986 3.133963 2.911651 -5.215726 0.306778 0.632319 -5.055903 -1.378767 5.066132 -4.410213 -3.015995 -3.899373 0.173220 -3.157897 -1.846239 -0.004094 1.671305 6.954599
特殊 4.212709 0.730926 7.060569 -7.079581 -3.601925 -0.516913 -1.821870 0.851537 -1.802655 3.368616 -0.885094 3.917584 3.743805 4.286733 2.038104 1.668678 0.059347 6.635237 -2.464086 -0.826374 -0.145300 -1.972308 -4.538372 0.004577 -6.132821 -3.391987 -1.941762 0.348969 3.530499 0.768011 -0.329903 -2.933866 -3.017764 -0.714836 -2.231314 7.201310 6.111548 0.726711 0.007827 1.985568 -1.108556 1.807415 -3.226249 5.966857 1.609593 1.699337 1.148623 3.070633 0.981960 -1.208937 0.587156 0.025426 -0.442636 -2.977294 3.082658 1.929691 1.774592 -0.064334 0.317155 -0.970657 -0.757576 0.079965 -3.057376 6.620894 1.768147 0.766866 6.696902 -5.445830 -0.596647 4.411735 6.167496 -0.178683 2.343223 -3.440092 -1.061926 -0.831050 -0.694073 -2.361182 0.018673 0.853510 -4.594338 0.062178 -0.046675 -2.139898 -1.226494 0.320538 -3.541520 2.827855 2.111362 3.021135 -1.450666 -5.577686 -3.256527 -0.844199 -6.424204 -1.528911 1.826585 -0.828749 3.648793 1.952692
红潮 -1.759548 1.820031 1.529818 1.192137 -1.345125 -1.222868 -2.155984 1.186547 1.085578 1.093648 -0.276724 -1.194365 0.425714 -2.119341 1.086886 3.080364 -1.336776 1.056720 1.809427 0.514505 1.840456 1.641277 -2.316392 1.446919 -2.785613 0.789298 -1.600669 -2.729922 1.822210 2.076835 0.913704 -2.839812 0.176305 0.851230 0.723830 -0.170848 -0.510769 -1.758626 -2.758364 2.045425 -3.481185 2.404050 -3.682038 0.997685 0.816889 1.131311 1.165235 0.974666 -1.027436 -2.843957 -0.781531 -1.698771 0.365576 -1.388322 0.667406 0.971768 -1.023773 0.009788 -0.710366 4.649818 -0.304006 3.271404 -0.404769 2.864081 0.026294 0.726973 -0.252228 0.313713 -1.854336 0.473650 0.573396 1.095613 -2.073606 0.715107 -0.777055 0.264705 -0.418733 -1.996686 -0.139155 1.244568 3.304116 -0.126551 2.072118 0.820023 1.859419 -1.028414 0.603037 2.231214 -0.596870 -1.755440 1.793455 2.787708 1.986199 0.705053 -1.596979 0.335639 -1.399480 1.099942 -3.006053 -1.149028
涓滴 -0.798667 0.420481 0.203873 0.463345 -0.024673 -1.564222 -0.211002 0.068935 0.257236 -0.032604 0.157903 -0.074358 0.169274 0.316158 -0.333187 -0.407943 -1.071119 -0.246226 1.109584 -0.378292 -0.177574 0.047717 -1.073369 -0.066102 -0.462321 0.433846 0.238367 -0.557555 0.010995 0.538901 -0.385483 0.033305 -0.358185 -0.029332 0.255312 -0.575935 -0.087218 0.254394 0.335260 0.812000 0.065526 0.007938 -0.774641 -0.998070 0.206819 -0.611052 0.210278 0.977006 0.160389 -0.314364 -0.590671 -0.919097 -0.983705 -0.079987 1.091165 -0.016055 -0.227607 0.144832 0.425438 -0.118437 -0.368726 0.742431 0.407167 0.478726 -0.185989 0.839779 0.683094 -0.195991 0.105601 0.431368 -0.448102 0.210661 -0.390228 0.148465 0.564263 0.100606 0.891212 -0.606564 -0.225947 1.452200 0.308830 -0.678098 0.205101 0.144241 -0.420522 -0.152058 0.265349 0.490510 0.804803 0.030302 0.371948 -0.628120 -0.220833 -0.153613 0.532877 0.147741 -0.218113 -1.183917 0.309489 0.095893
紊 -0.071617 0.448386 0.171789 0.201229 -0.390687 -0.080671 -0.022504 -0.051582 -0.164612 -0.177433 -0.238424 0.238014 -0.006375 -0.086872 0.286692 0.254163 -0.213799 0.184692 -0.033183 0.438226 -0.083964 0.285205 -0.062610 0.223603 -0.093315 -0.381218 0.031091 -0.071538 0.314498 0.169072 0.229068 -0.163870 -0.095310 0.092403 -0.090286 0.024155 0.203985 0.198218 0.029803 0.002704 0.037573 0.277188 -0.242869 0.058349 0.218986 -0.220419 0.051360 0.062485 -0.126346 -0.206658 0.238873 0.269057 -0.248328 0.030868 0.149033 -0.042168 -0.068547 -0.027551 0.166500 -0.291035 -0.101826 0.188864 -0.074373 0.125894 0.294055 -0.075091 0.337530 -0.101137 -0.132034 -0.059138 0.207486 -0.052358 -0.118470 0.048857 0.089342 -0.152363 -0.041781 -0.254155 -0.159506 0.183903 -0.172080 -0.188559 0.242317 0.112876 -0.061337 -0.244623 0.052639 -0.029934 -0.071842 -0.346328 -0.045350 -0.039391 0.297430 -0.055105 -0.018911 -0.017945 0.082382 0.426047 -0.179241 -0.108703
死死 -0.633736 0.834098 -3.510683 1.202230 0.151653 -0.357853 -0.170317 2.961801 -4.164247 -0.783923 2.333936 3.586176 2.340488 -0.290776 4.691857 -6.197575 4.792346 0.843140 0.303057 1.233208 -4.591769 -2.680470 0.378622 0.378354 0.677918 -4.376493 -0.306534 0.588615 1.501880 -1.022204 1.534727 1.461100 -2.581472 -0.041241 3.333139 4.421274 2.101280 -1.777613 1.611251 -1.644370 -7.138949 -1.138954 -0.233448 -2.865908 2.983746 -2.752264 2.160502 0.856141 2.941986 -1.627684 -3.269181 -2.626706 4.965510 -0.762411 1.808823 2.300361 1.991159 -0.453104 3.422996 1.740232 -0.517616 0.694497 -1.372819 -0.475897 0.543299 -0.754760 -0.409477 -3.623895 0.089848 -2.903150 -4.262285 4.071130 -2.138956 -0.613886 -0.542983 -3.427239 3.455203 0.547970 0.638068 3.521225 -1.539912 -0.703939 0.539929 1.398158 0.559934 0.685084 2.991256 3.680915 1.989225 -3.300923 1.178713 -1.041792 -3.498681 -0.948742 2.816231 1.434836 4.411357 -3.034122 0.556420 -2.135676
海外 -1.661404 -3.010165 1.771334 -4.914932 3.939454 -8.652274 1.644433 1.898730 2.432250 -4.738442 0.733472 -8.188568 3.304737 0.823768 -0.725864 -3.383525 1.323634 -0.995933 2.444474 -3.888101 1.478807 -1.755356 0.152787 -0.089105 -1.974947 4.269747 -2.867322 1.422526 8.331162 2.412530 -0.417236 -0.981661 -5.345136 -0.494304 1.294667 -6.338511 -0.114604 -0.555932 -1.845024 1.526708 3.482814 -5.419058 1.738917 4.565729 -1.357982 -1.837407 -1.053982 0.678366 1.135169 -4.715971 0.939513 7.537723 -1.091942 0.758178 4.422088 -3.985677 -2.162327 -0.415960 2.380614 -0.147168 0.467691 0.938571 2.034696 1.621710 -1.244867 6.713384 -5.490368 1.255443 1.673609 -2.029580 1.530522 3.304083 -0.657492 1.001788 -1.182472 -1.032144 -2.565133 3.201783 -5.908832 0.572453 -4.791505 4.590831 1.070329 -3.560291 -2.253443 -2.120232 0.680838 -1.275266 -0.683118 -1.346017 6.513885 -4.584830 0.673971 0.529405 -7.139251 -5.075649 -5.060237 -3.057362 4.888615 1.502436
询盘 -0.001557 0.056600 -0.230834 -0.037139 0.025722 -0.001207 -0.037635 0.096353 -0.098879 -0.051660 0.074136 -0.232284 0.073820 0.023869 0.020923 0.142034 0.048797 0.044363 0.050000 0.059244 -0.241545 -0.159212 -0.038925 0.015192 -0.183689 0.034335 0.127490 0.333308 -0.085388 0.049154 0.019470 -0.123803 0.235785 -0.070212 -0.039799 -0.124061 -0.156397 0.009207 0.024091 0.173348 0.079562 -0.039436 0.111061 -0.069599 -0.079965 -0.156780 0.035245 -0.112378 -0.054170 0.084731 0.017747 0.155586 0.051716 0.090322 -0.023524 -0.097615 -0.013388 0.069495 -0.306250 0.101546 0.165854 0.067430 0.073180 -0.013891 0.129830 0.093080 -0.118921 -0.112906 0.060163 -0.049613 0.036975 -0.170114 -0.134835 -0.075899 -0.220841 -0.071894 0.081067 -0.000786 0.078161 0.157286 -0.115041 0.036509 0.141023 -0.216490 0.131232 0.015193 0.072842 -0.003214 -0.172202 -0.329011 0.052785 0.138879 0.182416 0.066705 0.112986 0.184237 0.123509 0.116506 -0.199347 -0.118036
安然 -1.532086 2.143808 -5.335193 3.316905 2.260717 1.246155 -1.378326 3.368804 3.043017 -5.254731 3.947690 1.225981 -0.397038 -2.696100 -0.269260 -0.131691 2.696081 -1.464346 2.947751 -2.519497 3.284850 0.167610 -1.927524 -1.902473 0.679117 -5.531166 2.752567 1.731419 1.526904 0.471877 3.204391 -4.118502 0.354726 -2.059216 -1.261736 0.624461 -0.649089 -2.990806 -2.458520 4.452125 -2.557593 0.305992 -1.379557 -1.608862 1.726766 -0.007854 0.269087 2.380462 1.514718 -2.015483 -2.724312 0.781403 -2.123256 -0.552975 2.009538 0.219985 -3.716248 -0.831088 -1.241540 0.490390 -4.827777 -0.131018 -0.479278 0.040818 -0.093134 3.286707 1.296789 -1.255349 -1.276388 2.903553 1.403169 1.060638 -4.888731 -1.705176 -0.425035 -1.949450 0.705995 -2.261954 -3.489921 -0.760592 0.507771 1.054444 1.138238 0.642968 -0.373641 -1.388208 -0.637695 2.072907 -0.844987 -2.510821 0.331449 -4.478502 0.032817 -1.092090 -0.188346 3.069762 2.727868 -0.659942 -0.200325 1.837121
要紧 -1.037974 1.564089 -2.659829 0.472748 -3.280593 1.418392 -1.607995 -1.222478 0.074198 -2.731344 -0.602356 4.338347 2.233253 1.955336 1.636227 2.946546 -4.453836 -0.841137 -0.219771 3.555559 -1.656740 1.092497 -0.545831 -2.562180 -1.015537 -1.890533 1.104027 -1.582804 2.127049 -6.035831 -3.745823 1.611791 0.557123 1.912192 -2.512025 -0.014540 0.849518 -1.868666 -1.486445 4.906378 -3.807110 -2.316834 -3.633163 0.039057 1.766695 0.877930 -1.166510 0.049677 4.718832 -4.748177 -0.849995 -2.867134 -1.330223 0.347047 3.316319 -0.596560 2.105659 0.998749 3.946534 -0.589109 0.019894 -0.293489 -3.865185 1.557539 -0.368882 2.959589 -2.609923 -2.695448 0.311874 -3.862640 1.103848 2.572541 0.725451 -0.518124 -1.949698 0.956438 -0.597338 -0.432675 -0.673871 1.487631 -0.576701 -3.096245 -1.061304 -1.806120 1.539674 0.807595 -1.726152 0.154657 3.409116 -0.203954 -2.529787 0.945042 -3.111849 -3.133015 0.895449 2.632691 1.551435 0.620839 4.351181 -2.101968
壁癌 0.159685 0.092804 -0.030445 0.264807 -0.008244 -0.074111 -0.036984 -0.004706 -0.030070 -0.072193 0.270238 -0.091738 -0.065032 0.064362 0.006973 0.474445 0.021621 -0.034346 0.156779 0.007146 -0.009574 0.188158 -0.233915 0.219909 -0.053428 -0.137921 -0.194181 -0.181069 -0.220937 0.338125 0.297416 0.006196 0.153526 0.271923 -0.131957 0.123231 -0.028687 -0.071099 0.110976 -0.111395 -0.102696 0.423962 -0.117068 0.025112 0.083931 0.060968 0.096562 -0.177237 -0.042593 0.342714 -0.246897 0.118650 -0.119671 0.196187 0.352125 -0.045687 0.188954 0.089171 0.212852 0.405128 -0.154762 0.270880 -0.649848 0.556358 0.046371 -0.485886 0.234486 -0.246396 -0.259875 -0.484238 -0.069184 0.253313 0.622341 -0.203172 -0.050276 0.283323 -0.071004 0.180694 0.084751 0.194143 -0.032390 0.182296 -0.123499 -0.032542 -0.134089 -0.398506 0.173646 0.008366 0.102701 -0.401027 -0.206457 -0.430805 0.118497 0.320474 0.058892 0.419073 0.173850 -0.205800 -0.126095 -0.372098
数不尽 -0.432877 0.272813 0.144421 0.110317 0.217469 -0.099519 -0.207772 0.063555 0.067670 -0.061119 -0.126074 -0.163999 -0.062264 0.214593 -0.203342 -0.101345 0.060737 0.030847 0.083545 0.034236 -0.310346 0.194368 0.054279 0.045695 0.077002 -0.181925 0.167135 0.017625 -0.331339 0.154397 -0.166072 -0.279040 -0.054887 0.314471 -0.005092 -0.074577 0.107742 0.397889 -0.174498 0.039744 0.051416 0.240268 -0.055264 -0.135875 -0.075046 -0.191697 0.514799 0.429469 0.178229 0.450180 -0.207153 0.348854 -0.163574 0.001515 0.224329 -0.359464 0.060382 -0.083266 0.063407 -0.054228 -0.066848 0.028773 0.117528 0.031939 0.097659 0.407085 0.157753 0.121371 -0.424794 0.333230 -0.052814 0.247617 0.158626 0.156344 -0.027789 -0.138919 -0.075749 0.012712 -0.186411 0.627200 0.245543 -0.153888 0.283808 0.380988 -0.395285 0.028062 0.038145 0.043180 0.195714 -0.025145 0.597534 0.044812 -0.117396 0.016181 0.047063 0.314154 0.057649 -0.226552 0.179996 0.133188
帏幕 -0.153694 0.991319 0.729416 0.182204 -0.236843 0.191293 0.402321 -0.129367 0.108865 -0.366336 -0.055248 -0.061085 0.588160 -0.055106 -0.014823 0.543565 0.883073 -0.042457 -0.129625 0.131835 -0.900134 0.481568 0.123427 -0.560559 0.532181 -0.097828 0.057570 0.490880 0.378648 -0.204165 0.063680 -0.059270 0.299107 -0.327228 0.313051 -0.381162 -0.723982 -0.159817 0.417338 -0.339706 -0.175622 0.180357 0.271711 -0.401890 0.038284 0.007382 0.132195 -0.000897 -0.175594 0.469547 -0.389022 -0.166997 -0.289830 0.725153 0.189264 0.235104 -0.235677 0.198855 0.086886 0.060707 0.008166 0.583245 0.224358 0.191924 -0.333075 -0.126524 0.460373 -0.095191 -0.075177 -0.051547 -0.368290 0.328622 -0.279120 0.176879 -0.566293 -0.320670 0.629493 -0.647161 -0.113639 0.362823 0.619259 -0.329934 0.067716 0.411206 -0.145071 -0.426213 0.303295 0.083538 0.106180 0.309196 0.136687 -0.061612 0.190010 -0.055498 -0.071699 -0.082711 0.038674 -0.258835 -0.119386 0.008717
普普通通 -0.336695 0.901993 -1.269132 -2.253649 0.745922 0.213622 -1.664928 1.790230 -0.552974 0.626137 -0.222598 2.149127 1.140622 3.341845 0.618882 2.136055 -0.474859 2.109794 1.459742 0.308562 -0.439387 0.819117 -2.179264 -0.189002 4.584739 -1.323515 2.215172 -0.129462 -1.907934 -1.580618 0.197889 -4.736055 -0.583177 2.006454 0.339154 -1.113883 0.185461 -1.537286 -0.108797 -0.306832 -1.268910 -2.457164 0.728871 0.490958 1.528885 -2.931751 3.511925 0.503603 -1.014819 1.992808 -0.171016 0.924624 -1.757790 -2.066950 -0.314035 0.572828 -0.328582 1.216905 1.521304 -0.928040 0.591535 1.215400 -0.101354 0.701572 -0.292282 -1.244991 1.871255 -1.323060 -3.718600 -0.463823 1.571660 0.038148 0.152545 0.245997 -0.780674 -1.026275 -0.274031 1.446846 -1.571833 3.005461 0.312911 -3.149565 -0.483976 -1.933860 1.358418 1.098647 -0.640978 -0.552239 0.278569 -0.388914 1.611871 -2.179537 -3.040131 -2.211368 -1.099304 1.828773 0.242748 -1.139761 4.078164 -1.621739
新生 1.385267 -0.275186 -0.554727 -1.899922 -2.020659 -2.301822 1.155800 3.150741 -0.564755 -1.446458 -0.699067 0.451621 -2.322190 2.268249 -0.938407 0.488075 3.605044 9.045932 4.971334 -1.672041 -1.044652 2.166363 0.364197 0.291392 0.458469 -2.638606 1.086674 1.367520 0.286407 -0.298676 -0.657522 -2.421944 -0.231257 -3.021418 -0.127900 -1.101385 5.349462 -1.936588 2.503683 -3.024472 4.232997 0.742864 0.179252 -5.023463 5.039600 4.367081 3.174747 1.321545 -1.000003 2.321876 -2.050994 -1.948197 -2.148566 -3.829870 1.068260 0.665673 -1.708914 1.307948 0.672445 1.459508 -0.507733 3.017787 0.592162 2.528903 3.631609 -1.329102 2.438299 -0.225383 -0.016105 -0.446780 -0.099145 3.302596 1.756005 -1.861626 1.420573 -2.923766 1.565977 0.351102 1.371022 2.763696 -0.485553 0.295727 1.016480 -0.069790 -4.435848 -2.360285 -2.054910 4.094980 -0.534314 6.687121 3.940006 0.674498 0.613649 -1.998525 -3.363541 -0.416611 -1.905831 4.625216 1.984761 3.661880
各自 4.643848 0.906123 -0.095883 0.429854 0.087095 -2.418398 1.520465 2.564370 -0.846649 0.235457 1.339407 -0.155733 5.456587 2.658643 -2.518508 -4.276667 1.084731 1.295605 -0.796529 1.735654 -1.919468 -5.881632 -0.695028 -1.989121 -2.112551 1.099144 -2.971650 0.204955 1.718765 -1.206334 1.897016 2.187869 1.908663 1.640101 -3.098644 8.071291 6.883105 -0.254295 4.501194 -6.001040 0.982789 -0.424373 1.571573 5.776626 -0.501882 -4.116294 0.793004 0.972289 7.455857 0.269226 -3.115533 1.202766 5.646631 0.254892 -1.204206 0.579038 -1.616422 -5.022984 -3.777505 -1.329104 2.623033 -0.010393 1.120350 -3.142813 -1.142660 3.603550 -1.278241 -3.211615 0.480722 3.431068 3.838598 -0.826744 -2.151578 0.788521 -0.928830 0.063716 -0.560696 -1.038316 -2.936791 -0.785293 1.567522 1.685391 1.842238 -0.611290 -3.493433 -3.464739 1.064947 1.612436 3.007089 2.618654 0.735233 -2.435046 0.905453 -3.026482 -0.782151 -0.710441 1.671371 -1.929615 1.902025 0.936845
员工 4.492092 -5.646034 -4.827617 -3.379251 -0.108289 3.742127 5.981870 7.412903 -1.036656 -2.849108 -0.060827 1.958275 -1.161036 3.917719 -4.501320 2.390798 0.754771 0.037987 7.823859 1.878790 -0.213804 -3.247698 -1.829669 1.402475 -0.462486 -1.320581 0.402615 1.300820 1.813931 0.705254 0.461369 -0.019600 -0.786911 -1.657979 4.606024 -5.915765 1.620550 -4.442275 -1.806009 2.971730 6.641152 0.381328 5.530132 5.549715 4.167387 1.603313 1.441764 6.432204 5.567239 -0.920780 -3.979408 1.653214 -0.089681 -0.021176 -4.954045 0.224714 -2.235060 -4.550370 -3.906411 -3.824924 -2.569691 0.485825 0.303252 4.655831 5.502931 -2.003848 -2.384236 4.147641 1.818169 -1.765394 -0.421524 -0.353959 0.141623 -4.656159 0.069381 -2.448634 0.560965 7.457017 -4.597775 3.710355 -5.556087 2.510647 0.697070 -3.678878 2.420249 -6.290700 -0.017926 -0.334210 -1.213223 6.308399 2.900020 -5.932777 1.286276 -3.224025 1.927256 5.816042 0.240442 -0.954109 -1.450091 -1.871770
尖 0.004581 1.956432 -1.405218 -3.504391 -1.135172 -2.283140 -0.778166 0.113217 -0.903827 -1.453389 2.757371 2.342904 -0.009453 0.866535 1.137146 -0.418526 0.024470 0.826140 -3.987532 3.989196 -3.204250 3.975951 -0.621520 0.045699 2.013596 0.320543 0.893792 2.165114 0.166334 5.419808 1.868115 3.092236 1.678562 5.439307 2.213925 -1.482215 0.695847 -1.672125 0.165565 -1.234018 -2.112501 1.647342 0.005435 0.723311 0.288349 0.310127 1.109191 5.530416 4.782881 -0.615731 -1.761489 1.524581 -1.815784 0.978713 3.141002 0.149173 -1.117710 -1.082693 0.131942 2.378611 -0.760978 0.093916 -1.449648 2.079441 -1.432585 -2.197144 -2.088552 2.315754 0.132910 -1.175246 -1.524980 2.454503 2.949661 2.206220 -1.441928 -3.363757 2.708133 -1.577790 -0.423872 3.761177 -1.982040 -0.385455 -0.494594 2.000040 -1.990003 0.573258 2.219288 5.023820 -0.532276 -2.781435 -1.360250 1.848558 -1.435544 1.510982 -0.443973 2.118083 -2.010499 -0.802420 1.699708 -0.026991
魅力 1.013306 6.062476 1.590901 -2.602026 0.267641 -0.779735 -0.185326 -5.486845 1.671605 -3.963837 2.549197 1.049087 5.947273 2.267509 -3.057237 1.348245 -0.537687 3.923012 -3.803892 -0.644170 5.072244 2.821684 -3.235250 -0.767166 6.378903 0.922185 1.595616 4.301528 5.996102 2.001997 -3.111685 0.140823 -2.666941 0.654769 1.338004 1.835994 -4.205921 5.434721 -2.598897 -3.401382 -4.222298 1.095248 -3.686150 3.857272 -4.700202 -0.446171 4.426476 -2.115542 2.397468 3.315341 -1.836870 2.496776 4.603055 4.033189 2.696507 -2.463022 0.791012 -0.132751 1.371991 -8.128798 0.210500 3.660698 3.403051 3.236711 3.601593 1.235573 1.802822 1.115427 -7.987062 2.817278 -1.378687 3.988390 5.848860 4.850043 2.179236 1.014040 -0.977533 -3.141608 -0.982076 4.270781 -0.083496 -2.233947 1.242351 2.748641 -1.518998 -1.082351 0.655448 2.094334 -3.008516 1.420245 6.068254 -1.385415 -4.407549 -0.956043 0.804215 -2.751447 -7.567276 0.055868 2.643783 2.872836
资料 3.309247 -2.146563 -2.412160 -2.466437 -1.106218 0.357088 -4.138462 -2.444944 -3.691788 2.622535 -4.388204 0.313949 3.914521 2.570302 -1.132399 3.155766 -0.072162 4.464380 -2.030755 -3.110128 -0.882921 -1.243949 6.262371 3.241567 -5.952107 2.834910 -4.508075 1.722935 -1.386374 -2.282439 4.486382 -1.253219 -8.380773 -0.241181 -2.824717 0.815975 -0.462931 3.159475 -1.730562 -1.921283 5.247273 3.679871 -5.907289 -0.504712 -3.937744 -2.967213 -2.926548 -8.118166 -2.194732 -2.804918 1.790046 -0.878217 -1.385611 1.254545 0.132655 -4.093682 -2.787755 3.338595 -3.598754 1.473296 -1.656337 0.600447 -3.085546 -2.004168 3.814476 11.085777 3.957738 4.289564 0.095242 -3.731345 1.699312 -0.268385 -1.743126 -0.158245 2.762114 -0.497592 0.897248 5.276914 -1.984461 7.403584 4.951358 2.481990 3.606453 -8.468307 -1.824048 -4.497666 1.738179 0.275205 -6.738999 4.237484 2.193342 -2.197797 0.884755 1.416018 -1.551606 7.032497 -3.470645 -7.621712 -2.981863 -5.826897
不道德 0.126580 1.135112 1.455235 -0.322442 -0.089593 2.412344 3.138322 1.437664 0.255473 -0.139046 -0.150165 -0.241654 2.598304 1.924643 1.957617 1.419551 1.499611 -0.603133 0.331277 -0.848714 2.884663 1.936975 -4.354299 -0.348607 -2.391421 1.187563 -0.200937 -1.735235 2.113265 -3.123961 -0.448387 -1.785679 -1.748123 1.008581 -0.205735 1.464410 3.073447 -1.166857 0.953701 1.267935 -2.594742 0.451489 -0.970089 2.581129 -0.436546 -1.052978 0.572512 -0.661552 -0.881579 0.231325 5.542574 -2.637008 -0.705599 -2.135141 -1.224094 -2.263748 -1.222426 0.355556 1.210350 -1.623485 -0.579797 1.742391 0.199524 1.806383 2.028885 -0.091387 -0.764541 -2.481150 -3.251919 0.749593 3.555435 -3.065962 -0.727014 -0.231734 -0.011893 0.040879 -1.400757 0.501889 0.626437 3.208273 -1.688115 -2.649630 -1.460306 2.434664 2.872693 0.045350 0.296188 0.848948 2.703303 -1.293773 -1.389127 -0.452882 -0.183821 -1.010607 -2.288102 2.597929 -1.560435 0.106416 -0.399937 -2.201558
按天 0.164344 0.066061 -0.195805 -0.056884 0.100522 -0.075400 -0.089573 0.082348 -0.050486 0.152532 -0.000076 0.019700 0.123493 0.200531 -0.160908 0.114838 -0.027724 0.175559 0.119549 0.016332 -0.361713 0.062676 0.090006 -0.092251 -0.270003 -0.240992 -0.049636 -0.239550 -0.045449 0.306875 0.243808 0.068314 0.001646 0.008876 -0.076822 -0.125389 0.118112 -0.041057 0.095643 -0.020867 0.165426 0.050295 0.179505 -0.010014 0.007109 0.033062 0.090832 -0.001523 -0.183280 0.027898 0.037585 -0.206221 -0.130544 -0.091540 -0.075752 -0.482199 0.121260 -0.132208 0.005724 0.096336 0.302559 -0.022232 0.040690 0.008475 0.127228 0.178883 -0.265370 0.036496 -0.069680 -0.107822 -0.006367 -0.243460 -0.048631 -0.107113 -0.276198 -0.281954 -0.105478 -0.289531 0.074586 -0.114684 -0.163321 -0.033022 0.001260 -0.013520 0.172647 -0.064620 -0.029605 -0.191588 0.302019 0.312206 -0.119534 -0.042674 0.171435 0.068709 -0.063123 0.228776 -0.046217 -0.237555 -0.054913 -0.062079
朵 3.871459 1.551964 -4.430743 -3.519427 2.684392 -0.383153 -1.918679 -3.720540 1.376405 -3.048974 -2.396759 -1.359275 -1.900442 -1.638034 4.356067 -3.255880 -2.293317 -0.530557 0.281825 1.896204 -5.998902 4.997016 -1.219183 1.662824 2.079962 2.583584 -4.165412 -1.805465 1.023387 5.111502 -3.150699 -2.909890 3.435483 -1.073045 -0.695370 0.593450 2.306500 4.483320 2.560400 -1.800957 -1.744057 -5.771854 1.872070 -5.113326 -3.425959 2.592488 3.044146 2.977878 1.798547 10.053423 -0.807160 0.639115 3.600101 1.305743 0.446006 0.504581 2.341337 -6.114722 -1.474401 -1.212271 2.226184 8.303761 -3.074745 4.675116 -1.330134 -1.543635 -1.671775 6.113493 -0.027260 1.031473 -1.104500 5.253824 2.501380 -4.961905 -3.047174 -1.200303 5.715098 -7.988812 4.969043 -0.656170 7.962497 -4.479460 2.599799 -1.899977 -0.208895 2.591463 3.467838 0.831799 4.198808 0.938583 1.454302 1.967764 -10.779527 3.037169 -0.306551 -1.281036 2.457909 -1.029671 4.093742 3.949668
钓鱼者 -0.156358 -0.124140 -0.376210 0.283210 -0.766329 0.010817 0.061159 -0.185722 -0.281710 0.470055 -0.003628 0.026588 -0.327992 0.033616 -0.272160 -0.194708 0.943594 0.044548 0.109306 0.022596 0.126846 -0.395505 -0.253687 0.312531 0.007616 -0.049230 -0.441418 -0.011671 0.338136 0.258364 0.277580 -0.253690 -0.187992 0.456634 -0.056248 -0.028044 -0.201843 -0.064071 0.194287 0.581491 -0.302186 0.085959 -0.186635 0.423261 0.077690 -0.167232 0.849711 0.553907 -0.175249 -0.240054 -0.631894 -0.395587 -0.057026 -1.048645 -0.260520 -0.026428 -0.192831 -0.387356 0.521288 0.196382 0.004863 -0.203572 -0.297765 0.029935 0.432652 0.549566 -0.540358 0.764810 -0.355304 0.371773 -0.140846 0.521120 -0.585371 -0.193675 0.389596 0.092926 0.386301 0.446021 0.533047 0.695235 -0.061231 -0.347545 0.767224 0.134759 0.850761 0.140015 0.003342 0.483338 -0.004242 0.017804 0.352802 -0.142798 0.042864 0.037210 -0.479283 0.545836 -0.757448 0.093910 -0.118459 -0.365021
耐久 1.113669 -5.296260 -0.673021 -1.257953 3.675110 3.575835 -4.211167 0.508157 0.865939 0.019021 7.410287 2.413054 0.404420 3.173394 -5.083953 4.232064 -1.929865 1.402903 -4.473913 -0.759261 -4.194138 1.406844 2.992273 2.407126 -0.249470 4.305757 0.573416 2.583467 1.082346 2.178867 -1.716614 -0.671415 -5.305009 0.844183 -1.939160 1.844791 -1.276143 0.061010 -1.356152 1.877852 -2.630088 1.956031 0.016306 -2.851834 -2.192367 -1.020512 -4.230867 0.867151 3.382972 -1.271005 -2.592123 1.690459 4.848431 1.667729 -1.824310 0.219034 -2.888300 -1.201450 3.940380 0.902214 -3.460366 -1.580819 -3.891516 7.987098 0.736978 -0.329658 1.216804 -1.584872 0.140183 0.622698 1.254153 -1.094302 2.461392 -2.780530 1.732715 -0.102276 1.064604 0.957992 -1.297643 5.505192 -4.184470 1.322904 4.240834 -2.627271 -0.949804 1.950595 4.555953 0.705832 0.092201 -2.321644 -0.473920 -0.031405 -0.600048 -0.085009 2.053291 4.049867 2.652022 0.853442 -2.739951 1.922107
得法 0.207686 -1.093625 -0.984749 -1.357416 -0.629538 -2.151391 -1.229381 -0.084578 1.469980 -1.517281 0.300960 1.266385 0.520040 1.296186 -0.336846 0.255646 -0.517523 -0.058763 1.203306 -0.637958 -0.179738 0.910621 -0.063537 -1.393751 0.792999 -1.877456 1.739409 -1.205103 1.045807 0.170085 0.750086 0.358706 0.116188 0.828828 -0.179942 0.167261 1.604221 0.600088 0.799096 0.921983 -0.168778 0.449440 -0.992737 1.410107 1.461456 1.239205 -0.180825 -0.606960 1.296558 -0.904098 0.770294 -1.621535 1.232036 0.370298 2.164044 -2.818286 0.920420 -0.462881 0.582429 -0.992254 -0.620860 -1.099593 -0.587159 0.581309 0.783667 0.222399 -1.996016 -1.643317 -0.400772 -0.217308 -0.439078 1.070706 -0.520837 -0.384238 -0.156309 0.245753 -0.954376 -0.026398 0.590140 0.356562 -0.475947 0.358806 0.294842 -0.125464 1.062509 -1.641544 0.061209 -0.267904 0.791366 0.058437 -1.609537 -0.533648 -0.666089 -0.186087 -0.046496 0.992127 0.961751 1.344800 -0.867824 -1.060735
楂 0.006331 0.154690 -0.164217 -0.054745 0.064199 -0.055320 -0.045666 -0.121028 -0.053785 0.011757 0.019349 -0.061496 0.142801 -0.004596 0.082650 0.050104 0.011435 0.138034 -0.052082 -0.046072 -0.015314 0.332809 0.015893 0.172292 -0.014339 0.096756 -0.169005 -0.063523 -0.001783 0.207648 0.032670 -0.145384 -0.037055 -0.072285 0.056008 -0.104384 0.106190 0.093302 0.170111 -0.012711 0.028539 -0.063918 0.021622 -0.047103 -0.133033 0.188458 0.025457 0.124669 -0.053933 0.043828 -0.254744 -0.038084 0.061931 0.188109 0.047277 0.071897 -0.023223 -0.089765 0.053014 0.104365 0.066478 0.113883 0.001910 0.156373 -0.064311 -0.167127 -0.054837 0.134997 -0.226496 0.068900 0.077572 0.023352 0.064679 -0.222845 0.118230 -0.161093 0.208349 -0.060319 -0.030057 0.194587 -0.028929 -0.025294 0.091685 0.063135 0.062292 -0.172836 0.142447 -0.055010 0.061173 -0.212505 -0.048681 0.115014 -0.070846 0.000325 0.094880 0.056357 0.048506 0.122882 0.025017 -0.103940
气冲霄汉 -0.275083 0.101876 -0.006271 -0.106569 -0.197240 -0.061624 0.151505 -0.040612 0.017051 -0.033066 -0.020786 -0.217175 0.006102 -0.179624 -0.001895 -0.051864 -0.371206 -0.218909 -0.175748 0.144477 0.016347 0.351743 0.008501 0.108869 0.123345 -0.176468 0.047557 -0.059351 -0.036441 0.316572 -0.011345 -0.170338 0.158940 0.003477 0.202697 -0.050269 0.063526 0.092388 -0.039054 -0.124121 -0.160738 0.099468 -0.134679 -0.128807 -0.054211 0.054937 0.193296 0.395370 -0.025766 0.019708 -0.117323 0.243545 -0.047432 0.017260 0.190793 -0.123662 -0.203445 -0.162606 -0.007888 -0.066570 -0.028509 0.114563 0.234928 -0.006605 0.032836 -0.309954 -0.158667 0.103657 -0.117818 -0.006334 -0.033647 0.377322 0.073711 -0.090937 0.053840 -0.190234 0.093802 -0.133287 0.057047 0.396251 0.049538 -0.103696 0.158761 0.240701 0.045300 -0.055554 0.162269 0.389461 0.116613 0.018626 0.098003 0.199532 -0.117595 -0.161286 0.211198 0.046526 0.046479 -0.025007 -0.044947 0.011921
哥们 1.552877 -1.192173 -1.997302 -0.658840 -0.945606 1.020707 -0.750109 -0.361850 0.966251 -0.177395 0.057098 -0.680573 -1.409841 1.715180 2.069594 0.375287 0.106190 -3.323934 1.642093 0.105746 -0.688893 -2.337408 -0.835176 0.703780 1.217830 -2.587333 -0.183753 -1.538801 0.705238 -0.889092 -1.600893 -0.596707 1.497950 1.547215 2.991346 0.174843 1.005408 -0.957665 1.908981 -0.281932 -2.192656 -2.239110 1.734559 0.265305 -1.199218 -1.217930 1.053946 0.731011 1.383169 1.022879 -1.438981 0.284702 -1.952074 -2.106712 -1.464873 -0.303960 -0.470201 -2.000157 2.949006 0.116817 2.297180 2.697317 0.332637 1.259628 1.298589 0.431768 -0.843300 -0.937059 -3.696144 -1.209300 0.238513 2.679440 1.970170 0.449772 -0.254814 0.025620 -0.004590 -0.044829 -2.000175 3.600554 0.152559 0.401145 0.598089 -0.839397 0.707724 -1.118859 1.237732 0.775647 0.870409 -1.927639 -1.221505 -0.181806 -0.187260 -1.562443 0.488859 3.324984 -1.721429 1.708779 -2.322563 1.206594
足够 -1.422063 -7.885514 0.105349 -0.441183 -5.106454 -2.627349 -1.485935 3.017699 0.035851 -4.751612 3.197531 7.572403 -1.559111 6.503786 5.054449 2.876615 -3.134995 9.162971 -1.542828 -0.640803 3.139107 -7.853097 -5.101830 2.655200 -3.355933 -2.712241 -3.033009 2.947126 2.173846 5.328574 -1.473197 0.670898 -3.963918 -1.349849 -6.438603 1.567877 -1.301464 2.169658 -1.101359 0.017963 1.864599 -1.088574 -5.156169 2.425465 1.912745 0.765747 0.941676 -1.715967 9.143193 -0.567341 -2.042407 -4.170683 3.800418 -2.268657 1.293603 -1.373792 0.557242 2.376076 -1.312806 2.708549 2.877739 -3.339110 -0.480512 3.626553 3.928756 2.111360 -0.717236 -1.432442 1.397999 0.395977 3.914565 0.031771 -1.036056 -6.065257 -3.428438 -5.423660 -2.972275 -2.747166 -6.254366 0.602253 2.392383 2.439442 2.940898 -2.982067 0.871341 -2.906217 0.502849 0.546601 0.915762 -0.535799 2.661667 -3.664235 -1.843714 6.011686 4.193522 -3.308338 -3.134117 0.264644 -0.508255 -0.198811
洪涝 -3.197911 -0.772602 1.978724 -0.544304 2.881256 -3.025926 -3.941658 0.430537 -0.820479 0.840876 -1.070822 -1.223904 1.862809 -0.318264 0.419814 0.476678 -6.208748 -0.864790 3.069153 5.090827 5.228777 1.732576 -0.681426 0.858667 -7.963491 -0.924579 -6.612683 2.145227 -0.485169 2.307792 3.133263 -1.846655 1.319121 2.281521 7.504522 2.922457 -0.897133 -1.511662 -2.531375 1.315174 0.082926 5.551768 -4.496627 1.296118 -1.214965 -0.907202 0.515568 2.925455 -1.814462 -2.323979 -0.864601 -4.584504 -4.580007 2.283704 -4.119388 2.516726 -1.683450 1.528493 1.039906 6.985160 -2.124486 6.706673 1.594335 2.188571 -2.286945 2.510860 4.230003 -5.485456 5.094741 -2.721925 0.613008 3.601334 -3.499294 -3.365029 0.211852 8.846457 1.057786 -4.945615 -1.749860 -3.028044 -1.576479 -0.102182 4.627850 2.482539 1.119853 -1.046535 -1.580754 -2.984742 -1.871725 3.153589 3.038851 2.453889 0.556715 0.430458 3.288967 -5.431340 -0.480905 3.044108 -3.195959 -0.420160
昏睡 -1.159289 2.142718 -2.382573 1.972782 -0.071780 -1.237317 -0.775600 2.139548 -3.568865 -2.460655 -1.436008 3.690671 0.882141 0.425158 0.544730 -1.294420 2.665599 -0.359524 -1.726549 1.120623 3.017700 -0.189568 -3.666764 2.452787 -1.423364 -3.372835 1.221770 -0.513838 -0.853446 -1.473508 3.401380 -2.884703 0.214435 0.161585 -0.278087 -0.171671 1.194830 -0.293975 -0.306247 -2.271157 -3.077343 -0.448871 0.582293 0.679246 2.725953 3.480382 0.624255 -0.445991 0.733288 -1.533857 -4.573125 -1.117746 -0.563855 -1.036481 0.377442 1.008324 -1.456987 -1.889720 -0.120292 -0.458982 0.953670 1.494115 -1.076942 2.867087 0.294775 -2.420100 0.094717 -2.050339 -3.214720 0.321957 -0.301208 0.882428 1.222174 -0.253712 0.621887 -0.152876 2.272959 -2.051033 0.357730 3.610200 -1.282600 0.543169 1.253962 -0.761813 -1.595576 0.423293 0.298681 1.189315 0.943077 -3.697640 -3.145705 1.062304 1.008495 -0.737901 0.831952 0.039888 2.420155 0.866352 -1.925909 -0.586428
兼收并蓄 0.916980 0.250941 -0.088243 0.518376 -0.319580 -3.150540 -0.920599 -1.679828 -0.219739 -0.181514 -1.494446 0.050415 1.263818 -1.104884 -0.086268 0.202391 -0.541506 1.856327 -0.071716 0.066075 -0.288042 0.141015 -0.167749 0.472999 1.744491 1.199860 -0.775689 1.033580 0.510759 0.480838 -0.315321 0.705448 0.943136 0.181526 -0.175780 0.467699 0.940127 0.337617 0.576573 -0.602539 0.264892 0.183837 -1.015623 0.856920 -1.368966 -1.596650 0.195823 -0.367198 0.795145 1.172304 -0.392165 0.788289 -0.844334 -0.452444 2.046887 -1.024393 -0.910678 -1.355851 -0.428821 -2.421911 -0.205940 -0.062337 1.265899 -0.345668 0.810463 -0.282688 -1.920852 -1.585558 -1.072686 1.220863 -0.929033 -0.301106 1.192643 1.876805 0.973089 -0.443055 -0.352054 0.874735 0.111080 0.539386 0.156655 -1.245673 -0.245708 0.330443 -1.559518 -1.134170 0.764223 -0.014344 1.139987 0.954444 -0.473211 0.539940 0.056435 -0.969194 -0.324566 -1.879098 -1.433089 0.643985 1.136514 -0.337444
慢腾腾 0.010238 0.228586 -0.070441 -0.168135 -0.663333 0.036496 -0.184601 0.118120 -0.166473 -0.459245 -0.121014 -0.007662 0.305850 0.167783 0.316519 -1.139751 0.716954 0.120147 0.414236 0.197207 0.058458 0.146673 0.105535 0.389968 0.166903 -0.567235 0.412600 0.082413 -0.050172 0.086221 0.411721 -0.190347 -0.022617 0.382357 0.468156 0.475654 0.603349 -0.700130 0.486525 0.066270 -0.685757 -0.200834 -0.287298 -0.338055 -0.211161 -0.411562 0.383135 0.673130 0.483007 0.032369 -0.311241 0.268384 0.567274 -0.543277 -0.016902 -0.382059 0.132550 0.468160 0.393521 0.670544 0.079967 -0.037167 -0.072348 0.176756 -0.117331 -0.205060 -0.079216 -0.734185 -0.722387 -0.802680 -1.025761 -0.328318 -0.679549 0.364632 0.208701 -0.341110 0.458650 -0.461088 0.344977 0.245869 -0.284646 0.004643 0.107546 -0.090714 -0.208717 -0.073074 0.318013 0.038054 0.530511 -0.419312 -0.240785 -0.167072 -0.074343 -0.236312 0.046871 0.195313 0.373542 0.414271 0.349676 0.353654
髓 -0.054601 0.255627 -0.146406 0.287016 0.588440 -0.944499 0.987287 -0.540431 -1.059759 0.555087 0.272654 0.669270 0.959317 -0.018593 0.469997 -0.347531 0.521842 0.444252 0.028201 -0.528770 -0.208675 1.087931 -0.760193 -0.142254 -0.353843 -0.100084 0.539967 -0.680048 0.852623 0.113139 0.254627 -0.362642 0.043453 -0.323579 -0.181318 -0.356169 -0.114670 0.769974 1.445656 0.026738 -0.524457 0.295157 -1.741781 -0.052142 0.803506 1.303202 -0.707359 -0.114088 -0.561213 0.138645 0.575399 -0.988565 -0.571183 0.515356 0.722919 0.859435 -0.840519 0.206981 0.519566 0.318481 -0.307549 1.824532 -0.498194 1.110516 0.730213 0.026730 1.679272 0.339108 0.724927 0.460864 -0.890933 0.997491 0.848024 -0.250282 1.108772 0.215435 0.287242 -0.981159 -0.449655 0.383190 0.334856 0.441205 0.057890 -0.494878 -0.051185 0.254483 -0.744062 -0.798938 -0.137187 -0.992193 0.223734 -0.066425 0.450658 -1.986861 -0.026247 -0.886650 -0.300158 -1.132430 0.438609 -1.301228
挎包 -1.312437 1.716420 -2.317035 -0.231237 0.522393 -0.554534 -1.024353 1.084819 -1.167745 -0.390786 1.182486 -0.501621 3.494178 0.866303 4.470130 0.278942 2.414639 0.736597 0.081388 0.772122 -2.043772 -2.472241 0.506417 1.737118 0.276019 -0.260521 -0.833542 1.078829 -0.636494 1.362098 2.622765 -1.594923 -1.922831 2.105218 -2.192178 1.032669 0.663117 -0.189870 0.959496 -2.491230 -1.392710 -5.157511 0.927452 0.422312 1.507062 0.401841 1.518761 0.560662 0.817466 -0.443773 -3.613233 0.815016 1.196849 -1.458646 0.221578 0.586437 -0.795374 -1.250245 1.799426 -1.190670 1.611573 0.203072 -0.981022 2.856432 -0.946645 -1.636272 0.042807 2.951578 -1.569678 -2.912781 -1.889652 2.740904 4.234179 -4.250791 1.191952 -0.357790 4.006609 0.631467 0.663132 4.557676 -0.838300 -2.615989 1.802380 -1.004259 -0.823353 1.679713 1.222651 3.659756 -0.480742 -1.356396 -0.982956 -2.398533 -3.083282 -1.872488 1.736149 3.034939 0.959116 -2.508855 -0.068870 -1.019648
国外 0.779365 -1.109182 0.537106 -5.293515 -0.217606 -5.831401 -2.532487 1.739899 -0.112077 -4.507763 1.519238 -4.827588 5.871999 0.059669 -1.807729 -3.217103 1.490318 -1.930290 2.577208 -6.517277 -1.848506 -3.636776 -1.494871 0.153300 -3.365402 1.994691 -3.222540 0.107094 5.852816 3.589319 -0.015655 -3.634857 -6.896623 -2.546647 -1.941949 -2.280285 -0.663186 -1.759103 -1.206182 -1.409235 5.200648 -1.127876 0.501796 5.729035 -1.451327 3.860627 -1.966864 -0.370386 2.232646 -2.264623 -0.184264 1.901026 0.516928 -3.023326 -1.584371 -2.037051 1.107476 -0.619382 0.172284 2.272011 -0.000888 -1.264677 -0.120633 1.262318 0.469811 4.023928 -4.016336 -2.648670 -0.996990 -3.633966 0.421902 0.769736 0.231769 -1.489142 -1.526084 -2.747329 -1.275832 1.663434 -4.115385 1.538588 -3.768425 1.590128 2.107715 -1.979964 -5.653367 -1.764931 2.889971 -1.869770 -0.182260 -4.077260 -1.943654 -1.729144 -0.453603 1.295832 -7.454853 1.292832 -9.086106 -1.254393 5.512989 -4.872263
相当 1.428936 -5.660944 6.943792 6.823817 3.323408 -4.366294 -0.169963 4.886292 3.903268 1.844901 1.459473 5.491162 -2.044858 5.504731 7.006344 -1.247836 -4.423203 -0.706017 2.160835 -2.263049 0.584136 -4.284595 -7.815594 4.812818 -2.882805 -4.989706 -0.664822 5.700491 1.112461 3.715499 2.435565 -4.480982 -0.929638 4.090150 -1.157756 2.084569 -2.024157 7.158515 -2.750585 -4.010067 1.154629 3.153923 2.786467 6.169839 -5.188214 -3.402532 2.287137 -2.949479 0.409425 3.680058 -2.929527 2.203396 5.398387 -6.568460 -0.928675 2.130934 -0.248218 3.167253 1.135449 -0.663764 0.968958 1.397521 -3.190752 4.707937 8.666475 -0.665124 -1.766379 -0.280609 3.977956 -0.217724 1.657730 1.338073 4.128101 -3.438898 -1.961720 -3.271931 -4.487931 -4.731700 -0.561636 4.355918 2.509585 2.557227 3.230239 3.752952 0.525692 -3.533328 3.111606 -0.464391 -1.309871 -0.450963 -3.963616 1.012237 0.450874 1.846417 1.227482 -3.072238 -3.150254 -1.291878 2.335435 -0.223382
恻 0.044627 0.101546 -0.050760 -0.005139 -0.034538 0.005335 0.049295 -0.023869 0.029013 0.045270 0.004436 -0.048376 0.035820 -0.058879 -0.023827 0.039345 0.003999 0.057079 -0.001753 0.016891 -0.005933 0.087733 -0.013650 -0.020877 -0.074407 0.053473 -0.084451 0.079584 -0.021493 0.061663 0.001429 -0.066435 0.041659 0.009616 0.087753 -0.020008 -0.047017 0.021239 0.042913 -0.019783 -0.022833 -0.025346 0.009071 -0.061171 -0.003314 0.005725 0.053357 0.054618 -0.078931 0.036594 -0.037796 0.071501 -0.052115 0.061464 0.029027 0.010495 0.044412 -0.002852 0.032598 0.057151 -0.016432 -0.008450 0.003438 0.045051 -0.035674 -0.018989 -0.003846 0.037275 -0.096172 -0.047501 0.024581 0.028986 0.045409 -0.052962 -0.023981 -0.041627 -0.022788 -0.002457 -0.036741 0.098675 0.009329 -0.002931 0.029033 0.032538 0.020307 -0.036142 -0.002313 0.008594 0.021250 -0.019446 0.020338 0.035546 0.034564 0.013595 0.062817 0.002373 0.061291 0.010123 -0.034827 0.011098
沿革 1.021475 2.455770 -0.132750 -3.029306 -1.371937 -3.230313 -2.918077 -2.996261 -0.315334 3.860443 -4.343145 -0.466529 3.334072 -1.165723 -3.637019 1.797880 -3.027312 3.131612 0.076809 0.187042 -0.614339 0.340838 3.403529 3.590487 -3.176373 -0.711666 -1.237830 -1.997234 -0.243992 -3.850637 2.772950 2.136057 -1.022926 1.049296 -1.352261 3.366583 2.091429 0.894671 0.657499 -3.516402 1.170958 3.496753 -3.019392 0.231148 -5.189204 -2.010885 2.844842 -1.345634 -0.412793 0.289628 0.759203 4.627276 -2.430611 0.955930 3.737831 -3.386887 -0.074872 1.563933 -0.052903 -1.276156 -2.967201 0.171900 -1.135407 0.081822 0.186309 -0.026523 2.945052 -0.677247 -2.070268 0.003547 0.617429 -0.356426 0.365652 0.336568 0.035282 2.753865 -2.216571 1.464304 -1.508336 0.661760 1.856066 -0.159020 0.690716 2.019468 -1.928106 -0.805453 2.413344 -1.954750 -1.021666 4.127758 -0.164587 -2.314402 0.085348 1.921224 -1.975034 -0.235508 -0.743151 -2.916258 1.356886 2.000840
幸好 -2.448613 -1.116428 -2.230021 -0.493906 -1.366047 1.288438 0.306147 -0.009941 -2.413900 -1.979041 1.343454 2.820690 0.082175 -0.155411 3.495125 -1.143570 0.323030 -1.197134 2.449107 1.965768 -0.540842 -0.698118 -0.395179 1.851693 0.672989 -4.989034 1.382949 -1.131870 1.654915 -1.268605 1.486938 -2.268927 1.405630 0.136653 0.590232 -0.530901 -2.541759 3.015760 -2.394428 -1.473975 -6.027755 0.055035 0.213909 1.078786 2.269830 1.382298 0.265319 -1.272389 2.392398 0.429699 -4.067716 -2.248994 -1.515388 -0.837502 0.691424 4.432916 0.893589 3.025613 1.922842 -0.051798 -0.280865 0.495929 -3.165438 -1.282036 0.686720 -0.652464 1.510452 -1.143149 0.004668 -3.344765 -0.851855 3.859198 0.369061 -1.311670 -0.659039 -0.398445 3.514881 0.731156 -2.573221 4.818414 1.901910 -1.729365 3.483785 -0.224825 0.281673 1.068928 -2.290399 -0.438960 2.306134 -4.415529 0.127462 0.936108 -0.144894 1.919144 3.310335 2.031878 3.345091 0.710191 -2.626884 -1.186480
百 -4.374326 8.494333 -3.079571 -1.799255 -5.150577 -8.296577 1.743643 6.402485 -1.449812 -5.370308 -1.228323 -4.494016 8.521426 10.925425 -2.784157 0.234026 1.459219 1.902494 0.783228 -0.566981 1.087100 -0.468469 -0.131174 0.985209 7.359573 -8.173263 0.894039 2.409719 -1.385269 1.971846 1.522985 -4.355768 -2.378018 3.491589 6.373819 -5.221674 2.667605 -4.433131 -3.461485 2.147002 3.128869 5.623129 2.126536 3.893110 -4.877376 -4.602703 -1.735346 0.640702 -2.518483 1.360029 0.874928 -4.030048 -4.974066 -2.117531 2.853524 1.013761 -8.615288 6.046679 -0.515280 -0.602070 -3.116470 -5.851062 6.408879 5.938875 -6.654864 -3.009302 5.339790 1.554683 2.108750 6.099805 -1.900939 5.669494 5.616330 2.689380 0.569071 -7.032835 -2.093827 5.505323 -2.508904 4.209122 5.317113 -2.636538 0.387166 8.561330 2.993172 -1.061690 3.243083 0.026976 2.212247 0.168754 4.840730 1.766389 -2.907381 -10.905221 7.457851 -4.096828 -4.608473 -3.041189 -3.717143 -1.183684
赘疣 -0.085323 0.169465 -0.064061 0.039844 -0.013439 -0.042840 0.053698 -0.069338 -0.122176 -0.022128 -0.067796 -0.026295 0.063558 -0.071250 -0.025373 0.129993 0.002982 0.037794 -0.018522 0.098598 0.024343 0.200784 -0.136193 0.003572 -0.026911 0.077769 -0.101354 0.020509 0.070944 0.096889 0.109826 -0.083973 0.004122 -0.104469 -0.105618 0.001897 -0.012907 0.033466 0.023442 -0.040461 0.079236 -0.001466 -0.085627 -0.049742 -0.032920 0.023010 0.064785 0.191305 -0.095843 0.031206 -0.222253 0.007653 -0.077329 0.089325 0.054961 -0.063996 -0.097775 -0.030295 0.023738 0.049905 -0.022200 0.046980 -0.057125 0.091331 0.093669 -0.035811 0.040627 0.047103 -0.084932 -0.003804 0.054239 0.115618 0.003698 -0.047682 -0.035442 -0.020645 0.096013 -0.008211 0.010891 0.142670 -0.033754 -0.056033 0.004090 0.054699 -0.075232 -0.065112 -0.025046 0.003473 -0.021664 -0.152037 -0.026899 -0.025720 0.106415 -0.160293 -0.041486 0.016799 0.020950 0.023684 -0.044259 0.058179
攻略 -2.462998 -1.658904 -0.349799 0.019884 -4.080142 1.149384 0.389971 -3.636460 2.078550 -1.086177 -0.245082 -1.812980 0.398575 1.124815 -0.306062 0.658332 0.017480 0.638035 0.997406 0.525117 -3.609477 0.357391 3.785387 -1.242341 3.017362 -3.217069 1.405996 -0.037973 3.710183 1.604638 0.949554 2.517789 -4.379014 1.798363 2.188948 -3.524143 2.715381 4.560570 -4.167912 -2.811503 5.681300 -0.241034 -2.072783 -3.089494 -6.660158 -0.389159 0.519346 -4.295812 -2.189167 -0.944004 -1.006120 0.776881 -0.903887 1.573605 -0.650029 -4.679832 -0.919326 -5.789533 1.520181 -0.228481 0.609551 1.292234 2.265050 0.922486 2.756228 1.520673 -0.656988 -0.475257 -2.406474 -0.899504 -0.464586 2.983727 1.129234 -0.247505 1.092346 -2.137182 -0.388393 -2.283032 4.594086 0.476154 -0.646512 1.351539 -0.043654 -2.675715 2.083877 3.163084 0.132431 2.743062 0.576796 -1.129193 0.983454 1.287721 -2.490755 -2.953940 -1.706470 4.471627 0.529112 1.550987 2.047634 -1.509281
空洞 -2.634127 2.252251 4.571581 -0.792121 -0.225535 -1.845093 0.496149 0.482498 -2.860090 0.130847 -1.877239 -1.614927 0.429895 2.810381 2.322867 3.983711 -1.452426 1.438108 -2.463248 2.771997 -0.942184 1.088394 -5.798133 0.696482 -1.238188 4.257950 2.513277 0.495983 1.973399 -0.334391 0.037861 0.010963 -0.762333 1.552942 -1.726107 0.407608 4.199799 -1.823987 -0.298424 -0.470666 -4.550272 6.028316 -3.987167 4.523055 0.097213 -1.973643 0.843893 0.536320 -1.204422 1.061715 -0.074297 -0.829238 1.161925 4.807008 0.140148 0.092708 -4.190016 2.468656 1.971058 3.048114 -4.247921 3.218396 -2.034666 4.478611 2.210898 -2.529531 -0.439787 -4.864984 -2.842312 -2.777723 -2.791664 0.940750 0.481569 2.950704 -0.303691 -0.988178 -0.661474 -3.093489 0.549283 0.186615 0.672878 -4.371138 -1.567564 -1.157144 -2.718789 -2.529075 0.777602 0.690417 5.961016 -1.062277 -1.591192 -2.312239 1.687434 3.155840 0.483124 -0.982973 -1.579083 -1.735708 1.632131 -1.744590
言谈 2.556494 2.421116 -3.929216 2.050035 -1.219280 -4.916805 0.261135 -1.142459 -0.652998 -0.852648 0.489595 -0.332674 0.065344 0.470695 -1.589100 0.563365 -3.098304 -1.929507 -2.759155 -0.920925 -0.236318 -2.669790 -7.224246 5.541296 -0.922502 -1.779954 4.055611 5.106586 -2.012887 0.718718 2.522315 0.591971 -2.119195 0.247786 0.017366 4.606636 -1.290872 2.441520 0.602236 0.319781 -2.877985 -1.464945 2.157925 5.037901 1.594124 -1.981849 -0.224126 1.436609 0.357245 1.013815 -0.577533 6.349239 0.248958 -2.945223 -2.470349 -1.183049 -0.709134 -0.178536 -0.610041 -5.836984 -0.454015 1.954106 2.185741 1.330266 2.214243 -3.363976 0.419636 -3.364650 -7.116926 -0.230643 2.042339 1.473140 2.967231 1.631235 -0.435196 1.962819 -0.115672 -0.571127 0.210926 5.002404 1.886568 1.591975 -0.191266 -0.238696 -3.162672 -3.839937 1.058983 2.906447 0.183093 -2.579932 1.010334 1.208838 1.803114 -3.106227 -1.612991 -1.207300 1.677166 -1.508147 -3.967383 -3.908928
旌 -0.124934 0.081470 -0.183848 -0.151250 -0.160214 -0.006765 0.130969 0.001215 -0.084948 0.109149 -0.101414 -0.093127 0.069342 0.079225 0.007449 0.081384 -0.142524 0.022148 0.019924 0.035792 0.033026 0.138883 0.061275 -0.004150 -0.083535 0.020561 -0.046546 -0.077059 -0.054137 0.013330 -0.080735 0.016637 -0.038378 -0.119690 0.072111 0.053279 -0.049832 -0.003801 0.061582 -0.034310 0.111440 -0.039335 -0.068255 -0.115964 -0.053338 0.097050 0.047131 0.255763 -0.183649 0.102478 -0.172026 0.137012 -0.192585 -0.090194 0.055090 -0.012601 0.090863 -0.003680 0.079094 0.103321 -0.016585 0.057627 0.049415 0.113889 -0.039257 -0.022608 -0.008750 0.100501 -0.031692 0.001673 0.085772 0.125362 -0.044984 -0.111204 -0.018017 -0.230420 0.027100 -0.127323 0.052419 0.039803 -0.050888 0.003392 -0.048397 0.058690 0.084057 -0.128562 0.015259 0.048679 0.081656 0.202705 0.000154 0.078995 0.177489 -0.023183 0.082971 0.064734 0.134199 -0.048052 -0.004349 0.022641
图 -0.868035 3.367600 -3.354761 -0.839235 -1.106110 -1.458537 1.139867 -4.875055 1.955917 5.111324 0.080538 -2.547392 1.441748 -0.443080 0.389897 1.726589 1.223907 -1.674246 -2.502921 -1.127921 -7.233898 6.417587 7.775428 2.511759 -1.653108 -2.421792 1.234695 -1.681435 3.984679 0.871820 3.307981 2.534966 -4.997477 1.909513 -1.119131 -2.422731 4.811716 2.894676 -1.686833 0.400657 -0.015717 -1.103066 -5.262662 0.222695 4.060414 -4.036367 0.863261 4.461019 -4.772476 5.166702 -0.760425 -2.258695 -0.181918 4.226021 1.190037 -5.310923 2.240130 -0.458813 3.152752 -0.010440 -5.063191 1.375373 3.406350 0.385349 -3.446860 -1.007483 -3.132401 1.551347 -3.437107 2.641834 1.390663 4.050938 4.647842 1.444606 3.718288 -5.643621 0.333609 -2.692824 -1.988898 3.541704 5.389069 -0.138509 -0.912469 -0.267023 -0.163685 3.703832 -1.069187 2.704307 1.975369 1.485072 2.076334 0.358401 -0.955780 -2.010924 2.630712 5.343027 2.842070 -0.968654 0.158983 1.338749
杆子 0.285968 -0.240460 -1.003136 -0.858193 -1.679087 -0.580568 0.162244 0.025371 0.428224 0.818810 -0.872271 0.246912 0.077390 0.894629 2.707720 -0.923330 1.282998 -1.022135 0.488126 -0.287944 -2.658434 -0.056274 -0.484241 -0.419816 1.558004 0.210087 -0.149549 -1.682672 -0.827544 -0.407073 -0.710706 -0.231202 0.219424 1.278844 -0.871668 1.270769 -0.275564 -1.846124 1.180950 -2.041858 -1.790215 0.123625 -1.526635 0.045197 -0.204216 -0.748457 0.523056 0.321606 1.723766 -0.197866 -1.112487 -0.924577 1.332135 -0.373196 0.162831 -0.096549 -0.654497 -1.911851 0.697194 0.488766 0.721676 1.637144 -1.842514 1.546748 -0.163168 -0.929563 -0.289933 0.426900 0.091452 -2.010642 -2.270739 0.788982 0.627614 -0.755914 -1.187991 0.829164 0.810276 -1.046749 -1.896152 2.371148 -0.468217 -2.328697 0.062794 0.317225 1.248677 1.029726 1.057113 1.205208 1.241979 -1.918902 -0.289765 -0.539807 -1.926335 -0.178492 1.264169 3.234545 1.228445 -1.752543 -0.588215 -0.766023
吉祥 5.825630 3.386247 -4.067454 -0.311476 1.788473 -1.504537 -0.521337 -2.065075 0.227403 -1.316150 1.152633 -1.391207 0.509537 1.429277 0.380154 2.708787 1.632626 4.198069 -0.879656 1.285960 -1.583399 5.456438 1.023161 3.196035 -1.146482 1.390302 -0.668581 -0.445011 1.131074 2.977917 -1.277422 -1.920181 3.565603 0.477605 5.094792 2.166709 1.440824 3.000436 -0.020039 0.639960 -0.991349 -1.577058 -2.661710 -1.991502 -3.461881 -2.630275 1.919569 3.817268 4.315884 3.989830 1.098331 2.006220 -4.307247 0.902245 0.896562 0.358443 -2.921917 -0.606323 3.921395 -5.665491 -0.180761 3.438866 2.439014 2.786950 -2.681767 0.993088 3.645721 0.717690 -0.278590 4.149461 -0.804251 0.834474 2.953399 -1.304134 0.762742 -2.844431 5.436233 -3.228091 -1.039163 5.143273 3.100948 -0.903324 1.487132 1.458611 1.483958 0.419305 1.725405 -0.319462 2.304845 2.298938 -1.994792 -1.336559 -2.945427 -4.034971 -1.190170 3.227584 2.149351 -0.071227 2.273005 3.587204
光滑 2.532945 1.291541 -1.801560 0.260443 0.940205 -3.996663 -2.000655 -1.952122 -3.735461 0.313542 1.046116 0.728786 2.315542 1.529936 4.722735 1.446964 0.117411 1.941530 -2.403934 1.591292 -0.334990 1.951652 -1.050141 3.196763 -1.611253 -0.053482 0.626339 1.058773 1.189818 5.857920 1.608302 -2.065280 1.683366 0.840705 -2.973044 2.125056 0.255128 0.940546 1.245509 0.081199 -3.170121 3.935897 -3.849502 2.134150 0.492340 0.036402 -1.522637 2.464167 3.332965 2.801966 0.965226 1.770015 4.272312 1.173075 2.554019 2.186819 4.238405 1.301991 0.210080 0.091643 -3.236981 0.243345 -5.724787 3.382015 0.865994 -1.213901 2.524671 -0.279740 -1.897033 -0.486111 -3.022284 1.663048 3.331995 0.461427 -1.599938 -0.302734 2.257439 -3.269992 0.876937 2.184081 0.661853 -4.142693 2.584820 -1.629016 1.275639 -3.963694 4.759107 2.485684 0.805155 -4.311179 -1.321738 0.312198 -1.078055 -2.338485 0.431451 2.317302 0.561399 -2.309079 4.929290 -5.887159
绝世 0.480249 -0.159545 -1.349055 -1.596910 0.211956 -0.672335 -1.049745 -2.023029 0.620692 -0.508483 1.689128 -0.789645 0.246600 -0.294624 0.490184 0.044666 -0.070677 -1.176787 -0.941121 -1.359397 -0.384551 3.267379 0.043763 0.158964 1.231361 -1.623327 -0.071321 0.457893 0.999059 -0.022431 -0.393439 -1.197108 -0.747909 0.941541 0.309068 -1.307427 -0.483418 0.154196 -1.222445 0.724451 -1.986319 0.180494 -1.756328 1.002465 -3.009963 -0.198340 1.237034 0.093332 -0.637480 1.717718 -0.563377 1.271446 -2.360024 -0.398912 2.464065 0.635148 0.036288 -1.809066 0.441891 -1.894911 -0.417337 1.985408 0.430049 1.886018 0.158660 0.664398 -0.350195 -0.864052 -1.287943 2.489559 -1.145115 2.277681 1.594724 0.110201 2.497165 -2.164298 -0.805978 -1.018668 0.422091 1.912454 2.079860 -0.159288 -0.138595 1.505784 0.293694 -1.440244 1.158848 2.112005 -0.081012 0.219309 -0.489399 -0.665753 -2.594245 -1.261581 0.916439 1.071818 -1.619454 -0.933214 2.355739 0.857470
紧紧 1.715025 3.015600 -2.188988 2.600259 5.716541 -4.700626 -2.257293 0.938941 -3.117764 2.043121 -0.321385 2.605911 3.144073 -0.557285 4.499193 -0.271492 0.311950 2.394434 0.286986 4.539792 -5.322178 -4.675311 0.191952 -2.862505 2.516382 -4.879829 1.606218 -0.386526 0.998526 -4.327579 -4.209711 3.702209 -1.973637 0.174315 4.481987 5.414387 3.219960 -0.026275 5.965392 -0.567100 -4.105155 -0.863086 -5.547894 -2.005733 0.653794 -6.956776 2.488206 1.987282 4.577719 -2.029519 -4.618115 -1.526033 5.960730 -1.466792 1.515099 2.493940 0.534584 -5.953100 -0.909660 -0.977807 1.559301 2.014922 -2.140240 -3.065750 -2.471575 2.737617 1.415326 -2.362281 0.839789 -1.957184 -1.045564 4.637434 -1.389464 4.076704 0.916863 2.018325 3.500511 4.678457 0.703302 2.181228 -3.402189 2.494690 0.098283 1.682524 -6.703807 6.762465 -0.309482 1.955524 2.608247 2.665179 -1.239263 -2.287948 -2.709156 -5.999394 4.510033 -0.881398 0.354165 -0.934125 2.569636 -0.271383
祸害 -2.911053 0.440315 1.013076 2.849697 1.572794 -0.171980 0.354527 2.647047 -0.348442 0.417812 -2.772882 0.990504 3.823920 0.841049 3.485405 -0.120687 -1.567425 -0.529125 2.939783 -0.100300 1.999383 1.155539 -3.946390 0.101593 0.057354 -1.478927 0.333906 -2.558331 3.500503 -1.560786 -2.408132 -1.488001 -1.401217 1.124475 0.802379 0.757062 1.046727 0.621303 -1.392894 2.095309 -1.423690 -1.752939 -2.498835 -2.150450 0.664814 -1.092797 0.809118 -1.807960 -1.325111 -1.705601 3.762933 -3.505798 -1.020015 1.899873 1.161393 -1.761700 -3.198359 0.817201 3.080272 1.623492 -0.636508 3.481858 1.944218 3.517297 -0.755957 -1.038268 0.876311 -0.700770 -2.120238 0.565313 1.151928 -0.726464 -0.217022 -0.706836 2.348574 0.599090 -2.281956 0.353251 0.049106 3.181231 0.947899 -2.864913 1.389014 1.700258 0.801496 2.580780 0.745797 1.366664 2.387440 -1.862242 1.167655 -1.691135 -3.017904 1.522587 0.299990 -1.031240 -4.199110 1.646625 -0.728200 -0.527811
明摆着 -0.035322 -0.507223 -0.344873 -0.066947 -0.189043 0.356669 -0.147914 0.084000 0.730699 0.083748 0.153656 0.273440 -0.278443 -0.197699 -0.365691 -0.136199 -0.221536 -0.392136 0.186257 0.650377 -0.238515 0.514110 -0.312989 0.127790 -0.406987 -0.468709 -0.128111 -0.764111 -0.136810 -0.342844 -0.134707 0.072394 -0.313232 0.335047 -0.363580 0.291404 0.157982 -0.233971 0.020612 0.634049 -0.521354 0.038569 0.514751 0.232947 -0.069946 -0.158560 -0.099763 -0.297846 -0.160214 0.122619 0.407291 -0.198860 -0.491158 0.244822 -0.202722 -0.482801 -0.296564 0.345363 -0.263606 -0.009133 0.202701 0.173729 -0.195780 0.491206 -0.135539 0.015333 -0.408022 -0.553742 0.127010 -0.477605 -0.402653 0.193170 0.073304 0.042924 0.481886 -0.170068 0.220343 0.068621 -0.350263 0.047699 -0.563740 -0.912396 -0.536183 0.508758 0.300617 0.496747 0.267497 0.556344 0.402096 -0.018152 -0.198481 0.637294 -0.029944 -0.154474 0.670739 0.461565 0.325134 0.245585 -0.237262 0.551784
极光 0.311691 1.345927 1.161914 -0.815048 -1.658213 -1.068199 -1.454466 -1.370286 -0.928017 0.946697 1.063344 -0.159098 1.038345 -0.340106 1.185499 0.078085 1.041458 -0.762339 -1.211348 -0.673595 2.590193 2.129574 0.320122 -0.352588 -0.703888 0.863714 0.218930 0.586422 1.925467 4.230459 0.790780 -2.245756 0.217093 -0.831720 -1.789664 -0.488152 1.989136 -0.220364 -0.940548 -1.858232 -1.382342 4.529954 -3.163867 1.332176 -0.827912 -1.091086 1.067827 2.229239 -1.247152 0.271652 0.255433 -0.299450 -0.416361 1.182549 -1.207332 1.105085 0.345606 -0.710160 0.089838 1.091095 -1.572594 2.022960 -1.249857 1.593691 3.530913 2.184708 1.559333 1.568180 -1.401543 0.305970 -0.652908 -0.392088 0.991408 0.465041 -1.544966 -1.324678 -0.597385 -2.267817 1.049076 0.578484 3.096995 -1.173406 0.904255 0.948179 -2.960649 0.945127 1.407477 3.132065 1.392295 -1.592750 1.777022 0.560319 1.783750 -1.782005 -0.534274 2.357488 -2.566553 -2.620367 0.306106 0.273746
矮林 -0.431235 0.511582 -0.074196 0.239980 -0.325248 -0.165599 0.006501 0.112623 -0.140034 -0.184378 -0.053118 -0.226628 0.499946 -0.234264 -0.045052 0.348854 0.269633 -0.390149 0.298925 0.203636 0.362500 0.412192 -0.022599 0.182030 0.107664 -0.305856 -0.190468 0.070312 0.142753 0.436718 0.070852 -0.224364 -0.351910 0.433839 0.282016 0.077043 0.187042 0.077748 0.423305 -0.134463 -0.485306 0.047049 -0.499331 -0.168052 -0.059530 0.007478 0.141472 0.367011 0.182396 0.282493 -0.211181 -0.037092 0.137670 0.046999 0.207247 0.212864 0.334047 0.055578 0.107667 0.349342 -0.051885 0.104116 0.020598 0.049767 -0.224651 -0.027393 -0.211242 0.192338 -0.161081 -0.112843 0.093578 -0.117907 -0.293105 -0.174478 0.251271 -0.208095 0.359527 -0.261348 -0.040541 0.254338 0.417085 -0.042298 0.572139 0.288691 -0.118744 -0.219670 0.181437 -0.064500 0.237197 -0.237173 0.380139 0.252533 -0.331202 0.138190 -0.145300 -0.189725 0.225302 0.191567 -0.168206 0.261873
板滞 -0.022457 0.105718 0.012928 -0.068929 0.014538 0.026167 -0.019723 -0.114804 -0.017016 -0.066472 0.086775 -0.046072 0.010209 0.060894 -0.070664 0.045762 -0.122354 0.084862 -0.088613 -0.059484 -0.051656 0.050576 -0.027600 0.080066 -0.083081 0.003996 -0.042824 0.103317 -0.083878 0.012624 0.092008 -0.029177 0.070338 -0.066197 0.083201 -0.005921 0.015295 -0.003054 0.048249 -0.048028 -0.066985 0.116418 0.066931 -0.079497 -0.018196 0.103885 0.010842 0.028310 -0.014779 0.104133 -0.188035 0.126679 -0.036162 0.088126 0.058564 0.012679 0.056161 0.049435 -0.056358 0.089621 -0.166039 0.081977 0.060118 0.039470 0.011636 -0.005967 -0.060787 0.012634 0.004228 -0.092150 0.024603 0.050847 0.033525 -0.012160 -0.037566 0.000630 -0.074901 -0.051944 0.023076 0.192128 -0.047913 -0.104060 0.032459 -0.000327 0.098306 -0.082548 -0.000058 -0.106905 0.018397 -0.036683 0.001368 0.031576 0.012842 0.041402 0.009892 -0.019882 0.062859 -0.063698 0.121938 -0.072801
志向 -0.064223 0.309867 -2.243249 -1.191025 1.438562 -1.999928 0.495956 -0.372289 1.925428 -2.989321 1.456719 1.166098 3.250005 2.549360 0.859861 1.606795 -0.581355 1.392556 -2.735224 -1.557554 2.281109 -1.269014 -3.257621 0.029645 4.947909 -1.120089 0.118481 0.037193 3.384687 -2.429893 -3.034169 1.205343 2.780553 0.386412 0.928342 2.421766 4.046849 -0.879861 1.900459 -3.026457 -0.265436 -0.540330 0.895048 -1.270749 -2.735351 -2.115941 1.768482 -1.351653 0.552709 1.467223 -1.138757 0.503998 -0.486896 3.477163 0.221342 -0.801759 -1.959053 -1.392486 2.915286 -4.136388 -1.124654 -2.708960 1.517935 -0.387316 2.722503 -0.099197 -1.301155 -2.135626 -3.837245 -2.625077 0.293244 0.058073 5.760627 -4.650448 0.148502 1.442314 -2.362359 2.920338 -1.983895 3.502126 -0.481618 1.335254 1.183667 -0.730104 -2.953036 -2.105035 -2.114778 0.637114 0.853798 1.835453 3.656722 1.544062 -0.036583 -4.903820 0.314407 -2.983298 -3.581886 -1.064812 2.709792 1.950507
软 6.079847 0.854972 0.942037 0.098254 -1.783941 -1.848237 -2.538349 -0.846984 0.782692 -4.246167 3.193347 0.586372 1.032531 3.955330 3.347097 -0.963219 0.667964 2.236670 -4.582316 -0.007940 -2.911711 -1.507212 -0.543250 -1.507955 0.553399 2.133622 -0.726626 -0.816838 3.566744 6.065367 2.842275 1.738930 -3.947477 -0.032182 -0.597714 0.759621 1.039647 -0.941390 0.633068 -0.725458 0.838673 5.788576 -4.977750 -0.708716 -0.728378 1.173923 0.864293 0.865481 1.355449 -1.607004 3.834954 -1.950892 2.627832 2.266141 2.920352 1.579768 -0.245656 -0.360965 2.722305 1.603328 -2.387504 2.800295 -3.730987 4.332591 1.795242 -2.701540 -4.012071 0.693267 -0.893172 -0.686571 -4.150693 3.571632 -1.504303 3.181880 2.766319 -0.022343 2.023555 -1.146943 -0.105617 0.745900 -6.540454 -2.626655 -2.666099 0.921248 0.047698 -1.909482 -0.103772 4.901999 -0.446029 -6.133358 -2.777114 2.248361 0.625496 1.209715 2.135899 2.021877 -0.467383 -0.439056 -0.019591 -3.029986
差数 -0.597782 0.606303 -0.249038 0.214767 1.088111 0.055860 -0.150827 -0.287440 -0.622302 0.621238 0.319605 0.004376 -0.378092 0.270970 -0.206081 -0.558056 -0.962644 0.192347 0.575829 -0.085383 -1.006540 0.891738 0.673074 -0.790313 -0.663942 -0.096945 -0.378681 0.382899 -0.272502 0.658231 0.260823 0.228837 -0.516110 0.179659 -0.412922 -0.005593 0.497398 0.369193 -0.216093 -0.596020 0.140279 0.904373 0.712978 -0.761732 0.024126 0.105337 -0.954014 0.570382 0.408499 0.541051 0.057123 -0.755395 0.680799 -0.121678 -0.058314 -0.206998 0.401835 0.837847 0.625824 0.194317 0.628549 -0.245316 0.246624 0.777793 -0.404994 0.641802 -0.529331 -0.676668 0.429971 0.342282 -0.006164 0.201969 0.464832 0.208932 -0.346446 -0.552987 -0.038421 0.468911 -0.031548 0.285607 0.482617 -0.982628 0.734370 0.195434 -0.502513 -1.046537 0.757789 1.010357 0.040532 -0.998962 0.629279 0.585117 0.946706 0.613723 1.318885 0.001155 0.554115 -0.079875 0.234579 -0.453272
夫 2.676977 1.169582 -1.758442 3.830245 -3.036915 3.394201 3.727845 -0.471631 -3.119831 0.076653 0.034097 -0.027623 -2.897008 -6.575600 -1.690224 -0.145529 -1.097046 -5.155103 -0.866206 -2.260550 1.201277 0.462565 1.197563 -0.104000 -1.628384 -3.183253 2.512425 -0.090697 -3.117076 1.004971 -0.183835 2.164522 -3.179432 3.109596 3.038367 0.345636 4.341496 1.443969 3.317488 -1.973472 -0.161392 -1.675983 -0.601803 -1.272028 -1.258651 1.023929 -1.308704 4.097050 0.945291 4.360415 -1.683582 0.909861 -1.148300 0.450564 -3.360145 -2.401312 0.459294 -0.294636 1.839264 -2.108641 -0.381628 -3.422547 -0.313207 -0.860998 -1.175724 -0.359052 -5.441706 3.678048 -2.082168 0.524566 1.900074 5.765310 2.511668 -3.995866 0.126712 -1.810993 3.616332 -4.155318 -4.792877 0.188443 2.673831 -1.890021 0.126483 2.308765 1.575527 -4.485698 3.230748 -1.035492 -4.168677 -5.414252 0.578414 -1.524574 -4.328723 -1.525607 -1.290035 -0.078165 -1.282061 1.378388 1.328800 3.297945
古怪 2.107678 1.441952 -0.002782 -1.854127 -1.209749 3.859686 -2.212169 -2.935726 -1.389741 1.019451 2.105521 0.163230 0.245289 -0.178652 -0.780471 1.943433 0.535778 -1.717992 -3.456108 2.170552 1.718627 3.905438 -4.238469 -0.258139 -1.700419 -0.190166 -1.736792 -1.098466 2.270983 0.755862 4.041706 -3.527406 -0.028534 2.572558 0.398222 2.194872 2.220653 -2.428941 -0.137161 0.552183 -2.555865 -0.963140 -0.514711 3.687578 -0.865601 -1.341353 -0.403138 0.552447 0.447270 5.323184 2.306545 1.769512 -0.712350 -4.956057 -0.304098 0.138336 -1.814651 1.083516 1.245530 0.017289 -1.606931 1.643687 -0.635187 4.868929 2.412987 0.137695 -0.140729 0.081428 -5.144139 -2.403700 0.353401 0.186910 0.769177 1.217608 0.304625 -2.332166 -0.508211 -2.234428 4.039583 6.261312 0.264985 -1.218934 1.196166 0.526749 -0.176849 -0.672617 3.076069 1.673123 1.947294 -0.803719 -2.340503 -1.369375 -0.090145 -1.398610 -4.039341 2.514866 -2.184667 1.607243 0.934293 -2.694632
共识 -1.262941 -1.829901 2.995774 5.140413 1.699463 -8.062675 3.394727 -0.210837 0.268323 -2.577190 -2.517175 -0.464031 -1.170251 -5.970197 1.550747 -2.600758 -2.725056 1.671643 -4.544633 2.062212 2.617520 -8.799381 -5.711888 0.545169 7.046406 7.875866 -7.754719 3.619516 -0.821864 -5.180875 -2.382871 4.805017 8.593686 0.975550 -0.739716 6.597958 -0.428141 -3.290551 0.337093 0.572591 1.666077 -0.212640 -1.484234 2.960594 -4.881847 2.224573 1.205723 -3.890944 3.751652 -2.849993 3.704413 -5.796631 1.129251 9.821012 2.491102 -1.072621 -1.363934 4.147103 -2.287710 -2.342212 1.501768 -0.641451 1.762446 0.018652 3.815614 0.857441 3.066540 -7.576797 3.980578 3.376166 3.395588 -4.304704 0.374249 0.444341 1.224021 -0.306787 1.358354 4.085506 -1.078828 -3.740339 10.103152 0.824215 -0.686359 -4.223155 2.296010 -11.807190 -0.408098 2.036896 9.074737 2.034171 -0.377009 -4.494637 2.314119 5.142624 3.910622 2.968628 -0.184801 3.121967 7.315231 0.780507
阶段 -4.276184 -0.272669 0.286701 -0.569182 -1.969578 -2.147257 -1.239400 5.593539 1.052384 0.270494 -4.645108 -5.504105 1.124342 -5.057390 9.879627 -1.394013 -0.104979 0.909463 -3.722082 0.675717 -1.923827 -3.636075 3.093318 -7.700063 2.596873 0.133851 4.084958 3.795838 2.776634 -3.088016 0.738908 0.330450 7.774697 0.272873 -10.471540 -3.512432 6.546845 -2.368099 -1.113919 -0.242944 1.916086 7.970848 0.211359 -12.280236 0.615143 8.494569 5.048763 -6.863027 4.090799 -2.445210 0.172085 0.747924 8.462934 -2.724984 2.596915 -2.543604 1.475426 -0.201775 -1.518628 -3.525070 2.014920 -3.228024 -5.738542 -3.275512 1.581881 -1.061184 -5.031314 -2.990433 1.071805 -5.522240 1.850239 4.896251 4.209534 -1.139104 0.089734 6.945986 -2.306383 -5.700243 3.378077 -8.379245 7.805043 1.509255 4.840431 -6.097832 -5.539095 -2.210447 -1.734280 -2.848257 -2.825876 6.289415 -8.353951 -3.962073 2.630153 -4.751937 -4.567430 -1.095431 -3.582267 -2.607502 4.336128 -2.140614
竞租 0.069747 0.101000 -0.113522 -0.059475 -0.095303 -0.050951 0.051935 -0.022524 -0.040847 0.057498 0.039685 -0.163289 0.000534 -0.067180 0.012160 0.039172 -0.005045 0.111039 -0.063859 0.016227 -0.010683 0.197532 -0.062025 -0.064928 -0.034495 0.053731 -0.091139 0.026088 -0.015119 0.134666 0.043622 -0.197401 0.161056 -0.044305 0.015145 -0.049612 0.005022 -0.017979 0.092004 -0.067838 0.027422 -0.013643 -0.032686 -0.073564 -0.049534 -0.024147 0.132286 0.206285 -0.229139 0.048433 -0.040682 0.127485 -0.046983 0.055554 -0.024293 -0.010833 0.068670 -0.021493 0.028681 0.112529 0.108094 0.120106 -0.022926 0.017362 -0.030485 -0.004143 -0.153127 0.125936 -0.084099 0.022285 0.064126 -0.029522 -0.011000 -0.102117 -0.018706 -0.059738 -0.047671 -0.078547 -0.058955 0.109285 -0.039193 -0.022237 -0.004225 0.062081 0.064169 0.018842 0.030470 -0.083315 -0.111418 0.013599 0.016997 0.064356 0.059017 -0.049057 0.152432 -0.001159 0.090672 -0.081212 -0.039428 -0.002642
薄纸 0.578213 0.547288 -0.409006 -0.156943 0.170268 -0.451161 0.033706 -0.262560 -0.601719 0.008725 -0.299142 -0.235223 0.013355 -0.119394 0.756836 0.433036 0.461982 0.242172 0.051206 -0.057961 -0.619460 0.013317 -0.098632 0.410964 -0.462829 -0.261645 -0.579557 0.364704 -0.513793 0.542122 -0.032527 -0.624795 0.154266 0.102846 -0.516900 0.179983 0.354999 -0.348339 -0.129703 -0.870663 0.028042 -0.245289 -0.204842 -0.091119 -0.177540 -0.325417 0.063951 -0.378416 -0.075022 0.409388 -0.051104 -0.326547 0.328710 -0.029854 0.200201 -0.403272 -0.152360 -0.374786 -0.069709 0.189191 -0.353645 0.507542 -0.548455 0.345350 0.278518 -0.082467 0.044944 0.396120 -0.267425 -0.008378 -0.382832 0.325060 0.823154 -0.319415 0.547634 -0.425952 0.315547 0.100083 -0.159919 0.634315 -0.076703 -1.297957 -0.377313 -0.091541 0.255035 -0.340261 0.533773 0.595129 -0.089278 -0.419973 0.056864 -0.158284 -0.622934 -0.261734 0.535522 1.243240 0.390115 -0.736082 0.236090 -0.101891
草皮 0.255954 0.575354 -0.308986 1.327008 -3.279287 -4.653171 0.188440 0.255534 0.650890 -1.187561 0.220023 -2.848540 4.707592 3.741110 4.516841 1.006757 3.805312 1.363416 1.297859 -0.066393 -0.169164 1.154272 1.153607 4.297414 -0.833644 -2.303030 1.045613 -2.146741 -0.762599 1.974761 -1.608743 -2.447750 1.391078 1.257277 -4.277170 -1.727071 0.658675 0.994549 2.913439 -3.293876 -0.571729 4.233992 -2.156063 3.249743 0.520115 1.639656 2.456841 0.385612 2.828189 4.877674 0.404731 -5.073080 2.355209 0.509023 -0.906382 -0.006175 3.788028 0.445604 -0.361788 4.365582 -1.738009 2.444388 -6.232785 -0.601241 0.672425 -1.979210 -0.703532 1.900696 -0.901847 -0.818242 -2.999114 -0.413530 0.530973 -2.272847 -1.230486 3.059538 3.581544 -3.544852 2.346368 0.103074 0.978530 -2.558151 0.324885 3.230178 0.557593 -4.175957 0.814184 -1.096848 0.920949 -3.398845 3.597604 -1.932859 -3.708181 -1.440336 -0.246087 2.398743 0.414986 -1.880598 1.550935 -4.628336
精 3.798570 -0.854730 0.550001 -1.299816 0.792296 -5.515670 0.486645 -3.030963 -0.262677 -2.189123 -1.157381 2.643486 2.906776 2.735143 2.705818 2.706552 -3.251483 3.046078 -2.335187 0.640881 -1.281251 2.943265 -0.550516 0.912344 3.310241 -0.613425 -1.637001 0.514151 -0.146609 -0.983441 2.089849 3.533677 -0.161142 1.697146 0.527279 -2.260064 2.037037 0.556220 0.849068 -0.484434 -0.454915 2.039014 -4.386921 -0.532791 -4.200473 1.305021 -0.343787 1.996017 3.463842 1.720322 -0.323651 -1.155532 1.978746 0.368295 3.810302 -2.532524 -1.642087 -3.234963 -0.050567 -3.758239 0.803210 1.536760 1.487103 4.697354 3.135602 -0.348576 -0.232245 1.000108 -1.998332 1.500287 -0.882786 -0.032617 2.315634 -0.008364 1.524013 -2.928476 -0.461294 -0.797935 -1.068679 2.166981 -3.525260 -1.618118 1.044079 -1.771737 -1.077005 -1.461082 -0.518455 1.801400 -0.189895 -1.333115 -0.746094 0.591229 -4.013494 -3.068250 1.283129 -1.953861 -2.074179 -0.645838 4.049927 -3.188236
单身 -1.087435 0.194742 -4.342034 -0.763843 -0.171924 3.755497 1.744789 3.929564 -1.211872 -3.178412 0.793653 1.027750 0.668010 2.264735 -4.862887 -2.713239 2.231740 2.940131 0.028077 -0.580246 3.165078 -0.898377 -3.352794 0.620153 0.600123 -2.969170 1.304036 0.959809 -0.247305 -0.414546 -1.488576 -5.091014 -4.251734 2.381330 1.890727 -1.969452 1.686549 -1.357260 0.776998 0.352273 -1.097767 -1.964738 1.368021 3.464337 0.797507 1.465042 0.789828 1.554029 -3.600655 3.462958 -0.857607 3.016592 -0.893039 -4.142200 -2.066059 -2.371978 -1.539346 -3.953097 3.553971 -3.531121 3.212879 -1.149296 -2.864196 5.213600 -2.318734 -0.762149 -0.392960 -0.696104 -1.728500 1.991906 3.912683 3.663805 8.884691 -0.891577 0.517057 -0.631076 -0.554983 -1.594912 2.682381 2.660774 0.827313 2.555237 1.826503 -1.889096 2.618788 -1.737201 -1.229205 1.624473 1.886996 2.890673 3.878594 1.364980 2.317511 0.996196 -2.640529 1.975251 -0.004622 -0.131105 6.544037 -1.795141
瞠目结舌 -2.422471 2.337116 -0.852293 -0.578944 -0.380876 -1.169123 0.919309 0.436062 0.251926 -1.405901 1.817453 1.547748 2.728093 1.271647 0.646061 -1.086869 0.739877 -1.884152 -0.901563 2.445827 1.129727 5.866974 -4.357271 -0.294878 0.665331 -2.501914 2.443198 1.735246 -1.123123 -1.394005 2.355833 -2.698305 -1.571333 0.416362 1.535763 0.858676 -0.753978 1.180986 -4.614246 1.359343 -0.495121 -1.313329 0.235805 1.206399 -0.309348 -2.729044 -0.179530 -1.347254 0.170740 0.960482 -0.592755 0.844145 -2.033518 -2.317985 -1.519774 -0.272372 -1.620392 1.979279 1.109175 0.036895 -0.263526 -0.102098 -0.728369 -0.602382 2.455419 0.688090 2.561930 -2.258016 -3.218284 -1.083586 -1.708055 -1.488333 -3.293309 2.315619 -0.030753 -4.021231 -1.838702 -0.303313 1.035941 2.133596 0.588025 -0.142198 -1.577599 2.367061 1.486574 -1.337696 3.107179 1.024436 1.991679 0.036620 -0.133434 0.709944 -0.727025 -1.521214 2.796395 1.906524 -2.465086 0.143020 2.141655 2.011843
选区 -1.796932 -4.200295 1.998433 -0.081683 0.652459 4.416104 -0.156539 5.168499 0.584611 9.576344 -2.934793 -3.435230 0.683768 1.533195 2.178218 -2.948131 -0.954000 6.442858 4.329642 -0.017572 5.067834 0.703053 2.704771 -1.040843 5.719549 9.587858 6.509233 3.333189 -1.866130 0.850401 -3.612736 4.715934 5.513801 3.181968 -8.984354 5.442963 4.979569 3.057055 -5.950880 -3.376421 2.346476 -4.327417 3.859305 -6.556508 1.264998 6.782479 7.421388 1.600802 6.623646 8.963207 3.154255 4.820167 1.187090 -1.414539 -1.576064 -6.285281 2.389742 -0.051074 0.386632 5.242143 5.207480 3.979259 -3.643681 -2.424314 -5.968721 -5.431218 -3.355748 2.950380 1.111565 -1.465157 3.041792 9.228547 1.238718 4.070774 -2.387368 9.167497 -0.293420 -0.011864 0.606591 1.627812 7.185977 -4.056012 2.381595 -0.848441 4.136736 -6.443214 -1.839270 -3.130126 -3.601018 3.211091 -3.318698 -5.219156 7.810904 -4.057293 0.382425 0.072251 8.527550 1.232228 2.842354 -1.852552
羞辱 0.460183 0.296467 -0.897183 -2.074120 3.564337 4.438484 3.061357 2.151019 -0.598613 -1.685612 -3.624153 -1.420699 2.756634 0.328166 4.841056 -2.357793 2.190994 -0.212924 -0.705448 -1.205549 3.880355 -0.061351 -4.841219 1.577940 -3.406845 -0.821640 0.062288 0.285523 -1.532648 -3.500095 -0.528148 -0.058398 -1.025472 0.265378 1.041756 1.867539 -0.598037 0.370934 -2.206616 -2.521659 -6.185209 0.963985 -1.234107 4.822647 -0.251492 -0.699217 -0.191807 0.306294 0.013214 1.972751 1.974459 -3.424787 -0.992380 -4.274518 -4.441443 -4.158362 -0.763938 -0.275481 3.390791 -1.138034 -2.573174 3.129422 3.071851 -0.207746 0.303826 -0.912345 -0.160213 -3.486259 -7.101455 0.005415 0.268050 0.588549 -1.431380 1.204741 1.586780 -1.798960 -0.866299 0.395433 -0.428423 3.215670 -2.147673 -4.982523 -1.391122 2.158836 1.018142 -0.763797 0.984610 2.860295 2.822673 -4.546470 2.185923 -3.072157 -0.389130 0.076785 2.979193 -1.279742 -1.533001 2.779159 0.738581 -0.331078
至 -11.427411 -3.702733 -5.395344 7.342699 3.864996 -3.577509 1.521791 -7.446381 -7.426635 7.570130 5.952847 2.929058 1.365179 4.149212 -1.729322 1.588505 -2.300639 1.913624 2.744569 -8.026432 -2.354094 -0.333710 4.703280 0.805875 -3.329516 0.311410 0.239979 7.144086 9.033585 1.932947 0.607793 -3.849359 3.838840 0.511858 -4.189219 -3.851194 -5.136491 5.123889 6.536282 2.588665 -1.882116 8.917600 3.688915 -12.359835 1.560795 8.600812 -1.337436 6.817142 -5.550598 2.211287 -12.386689 8.294222 -3.123378 7.038471 -3.567632 -4.237278 6.239220 -6.810359 1.874304 4.013731 -1.956158 -2.591233 -2.538486 -6.337167 -2.046784 -1.381861 3.998397 -1.607305 4.938232 -3.702512 -0.376424 -1.707084 -0.921037 3.054354 -0.306137 -4.280025 1.346310 -0.510908 6.884064 -5.109365 -3.625259 -4.748838 -6.661885 -4.260887 5.510489 1.492680 1.629872 -3.546527 -3.600369 11.129044 -0.058372 10.047352 3.278444 0.691929 0.555839 -9.052007 5.799121 0.081483 -13.346351 0.109087
轻灵 0.693981 1.129583 0.061856 -1.144425 -0.023446 -1.629352 -1.026907 -1.599732 -0.205143 -0.862549 1.500837 -0.613842 0.627391 0.460323 0.486894 -0.589732 -0.064392 0.161932 -1.695042 0.864218 -0.034079 2.466864 -0.262349 1.269638 0.532797 -0.850775 0.678485 1.095732 -0.168208 1.477358 0.561793 -0.983556 0.565388 0.986220 0.033712 1.077833 1.175534 0.673200 0.444615 -1.005171 -1.387846 0.806788 -0.522323 0.859333 -0.224508 -1.218814 -0.567895 1.362982 1.129085 0.862140 -0.008429 1.597693 1.276382 -0.682922 0.946421 0.251388 0.345820 -0.523483 1.393980 -2.180047 -1.064745 -0.059853 0.392039 0.381002 1.016397 -0.677856 -0.034742 -1.015759 -1.364214 0.315193 -0.858056 1.699376 0.139982 0.591730 0.540640 -1.149187 0.333558 -2.591974 1.038010 1.778917 -0.252852 -1.583794 1.058843 0.019748 -0.567293 -1.467153 1.081083 1.478351 0.003899 -0.541204 -0.048116 -0.115407 -0.276218 -1.235095 0.336058 -0.096591 -0.587334 0.362526 1.206846 -0.003757
抗血清 -0.080396 0.491027 -0.348041 0.148129 0.115072 -0.222532 -0.000313 -0.404522 -0.097740 0.041300 -0.084793 -0.093580 0.484370 -0.268567 0.274284 0.255496 0.299701 0.343024 -0.104085 -0.094026 -0.224130 0.422037 0.081230 0.182019 -0.012846 0.081861 -0.255434 0.054196 0.200214 0.350854 0.002398 -0.328464 -0.204860 -0.197354 -0.333913 0.276833 0.363898 0.196305 0.337480 -0.180633 -0.162235 0.021648 -0.559662 -0.022936 0.097012 0.639016 -0.436307 0.052073 -0.304824 -0.097920 -0.051097 -0.867616 -0.091253 -0.236049 0.055345 -0.052507 -0.123756 0.143667 -0.152123 0.492662 0.178899 0.428574 -0.403237 0.517799 0.422727 0.036931 0.125536 0.261958 0.067547 0.178046 0.182493 0.022805 0.039610 -0.294588 0.455410 -0.361254 -0.119731 -0.072228 -0.171652 0.002434 0.277733 0.310070 0.203007 -0.066435 -0.044735 -0.199306 -0.216296 -0.245219 -0.464667 -0.094166 0.089874 0.298180 0.230533 -0.344779 0.091756 0.278009 -0.507207 0.121077 -0.052577 -0.132464
程式 2.162783 -4.637545 -1.025151 1.189190 -3.928447 -1.198156 -3.184840 -1.553924 -2.149417 3.156852 5.872078 -1.988555 5.611434 -0.566188 0.341498 0.104855 3.788828 3.157994 -3.975314 -2.257149 -4.169789 2.219237 -0.710674 -1.768899 -1.684867 -1.180161 -0.503764 2.640568 1.690360 0.899301 5.153604 -0.790370 -1.748731 0.146796 -4.860301 1.715698 2.014174 -1.691324 0.122107 -3.059315 2.747102 1.507351 -5.502927 1.696915 -1.734705 0.528228 0.314206 -0.655753 -3.805907 -1.494430 -0.261192 -5.402181 3.534952 -0.906237 -0.597592 -5.496429 -5.231129 -2.745687 -1.171959 1.547956 -3.950467 2.963702 1.740999 -3.181553 5.936448 0.573309 -0.858476 1.646952 -1.991448 -2.568795 -3.237299 3.937849 -1.853004 -2.552078 -1.277865 1.844429 0.427208 1.894079 2.816505 -0.391315 -0.051581 -1.008643 3.267112 -3.007889 1.394602 -1.492240 0.265141 1.098156 0.239862 1.831026 -0.931037 -4.971803 3.166632 -1.186871 1.122079 7.320862 -3.842658 -1.986828 0.724193 -4.825065
否定 0.710736 -2.307863 -2.897772 -2.170057 0.876546 2.165246 0.719834 -0.798904 -1.418740 0.769761 -3.251095 1.225577 -2.544687 -3.215159 2.298580 -0.724511 0.148672 1.029063 -0.902460 -1.554808 4.207760 -3.228780 -6.608922 1.993474 -4.975665 5.231194 1.408414 -4.689554 -1.596432 -2.734458 1.302552 0.653296 1.608397 -3.095318 -1.483441 4.752826 3.129276 0.126390 0.613768 -2.790590 -4.561091 3.997064 1.416933 3.380781 -3.486037 -1.148886 0.407921 -6.442645 -0.791982 1.151617 1.404326 -5.049907 4.069102 -2.038701 1.407250 -3.987108 0.276813 2.628065 2.349483 -2.401142 -3.425142 -0.439205 1.379563 -1.783969 3.063273 -4.125361 -1.700761 -7.550097 -3.238387 -1.591199 1.134853 -4.508845 -0.895111 1.584231 4.134972 -0.442284 -3.338579 -0.283771 -1.556476 2.276100 1.198969 -2.309993 -4.945368 2.896262 2.025364 1.537215 1.130847 3.713891 4.091675 -0.937199 -1.644278 -2.306466 -1.188177 1.010408 4.249218 -3.498217 -0.162000 0.043471 2.969407 1.051050
惺 -0.080503 0.193402 -0.146665 -0.039137 -0.067711 -0.072636 0.155773 -0.066259 0.003971 -0.088356 -0.001767 -0.117068 0.089352 -0.035486 -0.014844 -0.016841 0.000078 -0.019740 0.059520 -0.020369 -0.092691 0.154112 -0.135609 -0.003943 -0.038667 -0.116818 -0.134866 0.006641 -0.029858 0.093014 -0.023732 -0.065109 0.060896 0.002638 0.234007 -0.024543 -0.054095 0.109028 0.065985 -0.076086 -0.171699 -0.107415 -0.021791 -0.014249 0.003754 -0.051911 -0.020322 0.077808 -0.074678 0.091105 -0.200594 0.206022 0.002092 -0.048899 -0.032672 0.053271 0.087374 0.020667 -0.082648 -0.071691 -0.000722 0.008654 0.060633 0.007518 0.078944 -0.040149 0.009876 0.018590 -0.136384 0.099722 0.126340 0.103977 -0.002375 0.054236 -0.087602 -0.081321 -0.048235 -0.043189 0.039217 0.130802 -0.021210 -0.156197 -0.071176 0.092523 -0.016653 -0.019995 -0.045639 -0.014433 0.068316 -0.019367 -0.001284 -0.017957 0.047231 0.043448 0.108091 0.020958 -0.041041 0.008546 0.004858 -0.082482
木板 1.034983 2.527301 -1.424389 2.366564 -1.997627 -3.406390 1.926914 1.174293 -2.654337 0.514889 0.763998 -2.293677 3.694994 2.149098 4.875768 3.147003 3.578011 3.136897 -0.649031 -2.267266 -4.575411 -3.053524 -0.476642 3.542036 1.702854 -1.166661 -5.487022 1.152082 -2.536919 2.728318 1.561163 -1.488512 -1.199046 3.726780 -1.595411 1.134701 -0.543532 -3.203001 4.104933 -4.071283 -2.263486 1.430481 0.944496 1.219790 -0.253249 -0.777255 0.471879 1.354953 2.867909 2.403693 -2.244829 -2.128283 2.191944 -1.543756 3.686747 1.917445 2.640501 -3.511078 0.201148 1.960123 -4.118542 2.716201 -3.374724 1.578840 -2.786276 -2.714461 0.793915 1.053237 0.514070 -0.495496 -3.162887 3.783732 4.139829 -1.533168 -0.996230 1.542403 5.196913 -2.977344 -2.326981 4.364323 1.095245 -4.874554 1.444958 -3.154505 0.181403 -2.733291 4.346970 1.441570 2.505866 -2.034576 2.533871 -3.695404 -2.095271 1.231117 4.199029 5.840867 3.669904 -3.510019 3.051390 -4.412855
商 5.960904 -1.622966 -1.540614 -0.971457 0.170395 -2.461817 2.289322 1.852713 0.755680 -1.644278 -0.431840 -6.038674 1.697036 1.852481 -1.550738 -1.104012 1.972939 -1.178613 2.114259 2.142054 -2.644072 -3.096772 3.542405 -2.444377 2.820349 2.932171 -0.711729 2.511217 1.393444 5.248004 -0.419760 3.269909 -1.171510 0.749989 0.454407 -1.210331 -0.101135 -0.871174 0.027259 2.515123 3.471339 -0.627737 1.416509 1.150206 -4.652490 -0.766489 -1.468420 -1.991984 0.983757 2.235202 -1.491402 2.779396 0.354006 1.142487 2.004250 -4.350565 0.032224 -0.046392 0.916678 -0.187546 -0.462760 3.259323 -1.192936 0.942241 2.953304 -2.403272 -2.476821 0.035410 2.985365 4.197756 0.784179 0.580584 -3.425061 -0.367236 -1.133972 -0.685101 1.142573 3.885012 -2.699530 -1.071214 -6.294329 2.867590 -0.042597 -0.315015 3.730039 -0.440875 3.947561 -0.836002 -0.570234 -0.023401 -1.104246 0.136819 -1.193914 0.594890 -1.975462 6.234172 -0.429306 -1.191416 0.956106 -2.223216
所有物 0.174019 -0.058876 -0.560909 0.207065 -0.117377 0.240246 0.281782 0.203643 -0.205761 0.098290 -0.079014 0.064064 0.528127 0.167429 0.058261 -0.080202 0.364065 0.030403 0.216400 -0.183656 -0.167326 0.129688 -0.426674 0.072790 -0.500038 0.152347 -0.067356 0.247383 -0.000029 -0.041526 -0.086430 -0.187463 -0.162420 0.299119 -0.192794 0.354421 -0.150081 -0.303961 0.305160 -0.118440 -0.156290 -0.182601 0.061847 -0.149140 -0.396182 0.129867 0.018129 -0.071771 -0.328285 -0.086506 -0.292655 0.070323 -0.095762 0.071498 -0.189434 -0.179270 -0.263119 -0.295602 0.139178 0.055566 -0.227633 0.118625 -0.055580 0.078950 -0.004172 0.100889 -0.240753 0.049507 0.197625 0.036442 0.173481 -0.130926 0.040018 -0.574909 -0.022723 0.251351 0.051342 0.054969 0.021815 0.324925 0.294851 -0.319776 0.109503 0.170366 0.005064 -0.255408 0.413028 -0.171295 -0.019044 0.045967 0.318812 -0.615309 0.216602 0.007015 -0.319375 0.293285 -0.025339 -0.588793 -0.304883 -0.196055
文墨 0.105885 0.264906 -0.064109 -0.239525 0.098635 -0.370505 0.067446 -0.345838 -0.171407 0.210588 0.019108 0.112310 0.190659 -0.092440 -0.191132 -0.202486 -0.210299 0.084021 -0.293984 -0.241490 0.056292 0.467851 0.085051 0.381991 -0.244893 -0.340457 0.000800 0.085191 -0.377037 -0.152839 0.055341 0.022229 0.307928 -0.113478 0.390314 0.525603 0.069379 0.083185 0.017962 0.080545 0.148574 -0.073766 -0.304716 -0.224529 -0.267391 -0.359539 0.021663 0.039752 -0.260693 0.430442 -0.671235 0.263456 -0.544947 0.063494 0.458982 -0.343497 -0.304957 -0.340180 -0.027330 -0.276333 -0.506299 0.156905 0.560162 0.305102 -0.137308 -0.074142 -0.389817 -0.060443 -0.301304 0.206357 -0.038892 0.392993 0.524434 -0.125696 0.356702 0.091228 -0.019061 -0.046745 -0.327292 1.083844 0.078816 -0.644527 0.264258 0.183679 -0.040251 -0.422818 -0.069404 0.162451 -0.245505 -0.246542 0.022983 0.030003 -0.357746 -0.157804 -0.235744 0.148153 -0.129360 -0.263965 0.328189 0.103582
叛教 -0.208250 0.151443 -0.303680 0.286961 0.186389 0.031362 0.229462 0.313834 -0.069363 0.187655 -0.134345 -0.180665 0.193568 0.074980 0.336395 0.225599 -0.182650 -0.124048 0.033128 0.133502 0.025223 -0.044388 -0.295646 -0.264065 -0.231971 0.204874 -0.208201 -0.399266 -0.010048 -0.222537 -0.041269 -0.407096 -0.073500 0.034894 0.560539 0.215071 0.266462 -0.266489 0.458688 -0.234727 -0.112033 -0.095669 -0.266262 0.027038 0.187746 -0.025349 0.154837 0.367917 -0.230437 -0.019397 0.376622 0.126138 -0.182169 0.080340 0.177406 -0.361045 -0.064418 -0.599700 0.176930 -0.102332 0.142986 0.099237 0.369041 0.047219 -0.067310 0.045147 -0.146618 0.201086 -0.172339 -0.035239 0.141446 -0.150153 0.095945 -0.130353 0.141366 -0.245592 0.044912 -0.338849 -0.490180 0.221907 0.197677 -0.184662 0.239981 0.222961 0.219807 0.163982 0.013810 0.000794 0.220797 0.030328 0.120712 -0.237871 -0.088354 -0.146447 -0.324088 0.119898 -0.144449 0.098871 0.106430 0.048303
羸弱 -0.106659 0.855591 -1.033114 -0.168384 0.967478 0.619165 -0.997528 0.276959 -1.634204 -1.622841 0.663266 2.730850 0.718875 1.015163 0.289402 -0.703642 -1.184647 -0.234540 -1.143705 0.773614 1.164875 0.795224 -1.387828 -0.553046 0.386948 -1.806814 1.668549 0.078450 0.241104 -0.205830 0.490048 -1.486467 -1.826755 -0.159137 0.109189 0.431384 1.486154 1.145226 0.660167 -0.825092 -3.281784 1.501016 -1.003631 -0.630506 1.748487 -0.587492 1.539894 -1.162393 2.411098 -0.387675 1.329454 0.319666 -0.433780 -1.209083 0.824159 0.016159 -0.087307 0.664102 2.102887 -0.898127 -1.693784 0.914650 -0.053251 3.161623 -0.342016 0.231056 0.528620 -1.958427 -0.382117 -0.467176 -0.449478 1.104326 0.066939 1.240825 -0.049535 -0.670613 0.273473 -1.964931 -1.012296 1.459489 -1.776206 -0.475484 -0.491906 0.007724 -1.788820 -0.740528 -0.136727 0.855665 0.194359 -2.473942 0.475616 -0.912280 -0.361996 -1.004689 -0.296590 -1.058637 -1.060424 0.479216 -0.163760 -0.813767
辙 -0.373220 0.178780 0.034988 -0.235562 -0.501448 0.193017 0.475711 -0.038985 0.120423 -0.460544 -0.288666 0.196319 0.240099 0.397053 0.763483 -0.008378 0.050311 -0.542587 0.450171 -0.046728 -0.467858 0.508477 -0.655015 -0.625151 -0.038722 -0.626492 0.710226 0.128236 0.410183 -0.537213 -0.516780 -0.987838 0.563718 0.547465 -0.163068 0.381991 -0.145068 0.826850 -0.385809 -0.430888 -0.292136 0.267462 -0.174706 -0.609445 -0.423085 0.271960 -0.406541 -0.772964 -0.347818 0.337805 -0.020352 0.254541 -0.221705 0.261411 0.225136 -0.183772 0.072672 -0.279526 0.073482 -0.279956 -0.191220 -0.069415 -0.047677 0.447198 -0.110454 -0.389174 -0.300567 -0.820627 -0.533308 -0.320569 0.088170 0.292445 -0.277284 0.423035 0.064747 -0.213333 -0.553819 0.026598 -0.605556 0.691181 0.895350 -0.629179 -0.831050 0.217786 0.117037 0.274272 0.656612 0.041286 0.440752 -0.273827 -0.052534 -0.142413 0.279459 -0.573846 -0.227226 0.533829 -0.398747 0.026501 0.010984 0.392335
关口 -4.798624 1.756851 -3.873296 1.838823 0.554047 -3.471315 -3.457817 2.164465 0.235909 1.547520 -0.652805 -3.189979 0.658960 -7.326415 -0.187834 2.327204 2.463459 -0.049815 -0.388626 1.915352 -6.364313 -1.441465 -2.238747 -0.750408 3.462273 -0.389642 -5.084673 4.198986 3.934424 -3.168908 -0.575959 -0.513181 4.709400 -2.147929 -0.191082 1.338051 -3.752707 0.029485 -3.670400 1.860503 2.960345 -0.690708 -2.732859 -1.375516 -1.439742 0.057165 6.592479 1.223995 -0.114579 -2.147359 -2.960850 -3.343096 2.684045 -2.560767 0.210088 0.097370 -0.716293 -2.540208 -0.368078 -0.687258 0.751690 1.813841 -3.339428 0.395336 1.811519 -1.811035 -5.288597 -2.465622 4.421785 -3.849518 -1.950055 -2.195367 1.706814 0.619124 -1.383547 -2.452644 -0.418267 -0.431853 0.430340 -1.463892 2.092530 -3.647326 -2.033691 -1.021271 -0.889646 1.280555 -4.554272 5.047695 -6.923524 -1.039027 -2.519236 -1.297588 -2.534672 4.580629 4.003976 -1.708014 0.606825 -1.932341 -3.163758 0.132272
获利 -0.478472 -3.790522 1.352529 0.499472 4.507148 -1.777641 -4.101640 4.433748 2.351948 -3.512037 5.030216 -2.019332 0.626189 2.336593 -2.529576 -7.282213 0.845560 2.992598 4.255072 -4.936751 -0.304877 -1.130242 -4.029405 -3.518571 -4.837280 2.379636 -3.759233 7.017566 7.086265 3.974370 0.079269 -4.384296 -0.913067 -0.861168 -0.460577 -2.202060 -0.800001 -2.875486 -7.999865 3.834478 -0.264980 1.930674 5.456695 -3.886938 -2.166411 2.953533 2.738624 -1.822247 0.909737 1.099795 0.666776 0.299959 1.415697 8.067684 -3.315863 -0.128542 -10.161201 -2.978099 0.847972 -3.150764 -3.386155 -0.141308 -0.053339 2.423053 5.734254 2.596583 -7.026196 1.295244 3.049564 1.079421 -0.934566 -4.927572 1.584541 -0.101926 -1.716526 3.103274 0.039616 0.712341 -2.656754 3.359484 -2.532538 3.107811 1.884357 1.731678 -1.107010 -5.117052 4.723212 1.968719 -2.018655 -4.035205 -1.684604 3.607672 -1.860498 0.116971 6.553069 3.861653 0.713668 -0.977863 -3.431374 -2.412622
叉子 0.043664 0.559955 -1.044490 0.413701 0.059393 -0.301294 -0.142263 -0.403006 -0.178965 -0.153877 -0.026890 -0.245003 0.412985 0.219113 0.937288 0.433715 1.299518 0.674499 0.474779 -0.437433 -0.954812 -0.047328 0.647396 0.646356 0.347265 0.330286 -0.452285 0.359533 -0.306834 0.993837 0.336505 0.386820 0.241711 0.577095 -0.156181 -0.264453 0.304292 -0.415456 0.229023 -0.485848 -0.372317 -0.779900 -0.309316 0.500622 0.149077 -0.044233 -0.369257 -0.275691 0.977605 -0.255381 -0.967427 -1.231119 0.596597 -0.889267 0.331076 -0.095184 -0.153012 -1.050366 0.730263 0.723229 0.511903 0.693306 -0.547021 0.609989 0.235611 -0.095261 0.146745 0.787506 -0.787767 0.088389 -0.616595 0.407568 0.629234 -0.761867 0.479712 -0.390017 1.653357 -0.820716 -0.471485 1.028970 -0.271210 -1.153080 0.502465 -0.145078 -0.232688 -0.573105 1.050829 0.968068 0.987126 -0.993935 -0.626593 -0.212595 -0.606609 -0.546290 0.543195 1.306179 -0.353391 -0.087386 0.087379 -0.307423
脉冲星 -0.031037 1.028264 -0.352996 -0.128877 -0.286009 -1.087661 -1.031722 -0.295670 -1.684648 0.925682 0.424078 0.756087 0.355934 -0.377563 0.365653 1.026391 0.407532 -0.118972 -0.661437 -1.229885 0.486444 0.873763 -1.241762 -1.156353 -0.028206 0.490028 -0.177690 -0.320101 -0.028196 1.898399 0.581580 -1.140029 -0.485598 -0.203123 -1.237020 0.219421 0.856043 -0.378315 -0.261986 -0.498501 -0.740780 0.922423 -1.481054 -0.131655 -0.476572 0.023892 0.509066 0.944993 -0.547061 -0.882058 0.228685 -0.240905 -0.103785 0.324854 0.164678 0.553533 0.348900 0.172407 -0.283839 0.786423 0.259661 0.486943 -0.494757 1.054264 2.321961 1.204688 0.460321 1.323850 -0.484540 -0.399369 -0.438348 -0.047425 0.951971 0.510502 -0.462222 -0.611328 -0.366649 0.496759 -0.968880 -0.022964 1.833442 0.158489 1.389268 0.146369 -1.369649 1.038307 0.567228 1.440395 0.599662 -0.954723 1.130823 -0.198272 0.960084 -0.533500 0.640238 1.202807 -1.457764 -1.193282 -0.287729 -0.442955
床铺 0.640945 1.551785 -1.603982 2.044572 -0.506103 -0.025585 1.642755 1.735414 -1.325695 -1.559948 0.167313 0.312746 3.262866 3.016890 3.545815 2.821426 2.960552 2.190915 -0.853049 0.425622 -1.697230 -3.059466 0.078663 3.610814 -0.316391 -2.453764 -0.119512 0.119391 -1.488284 2.053027 2.089566 -1.496373 -0.575013 0.983834 -3.089657 0.370225 -1.435297 -2.296968 2.277317 -2.769736 -0.189989 -1.388273 1.554474 0.872696 0.562052 -2.070439 -0.306983 -0.050255 2.408488 2.735146 -3.061734 -0.496009 0.006814 -1.510867 1.000442 1.642662 0.546172 -2.417717 -0.398886 0.744855 -0.293917 1.356401 -4.032908 0.270466 -0.628125 -0.956561 0.834430 2.202927 -0.819876 -2.584410 -1.621505 3.032016 4.012993 -1.661136 0.353534 0.371264 1.662105 -0.990328 -0.188799 2.020043 0.107267 -2.650967 1.020495 -2.559442 -3.164490 -3.468605 -0.143508 0.145647 0.618995 -1.603040 -0.003798 -3.138738 -1.947411 1.038742 1.677858 5.227373 3.964602 -0.461450 0.881892 -1.963606
宽敞 3.047612 3.982464 0.563805 1.577043 -4.829229 0.569903 1.624824 3.716679 -2.513849 -1.122525 2.279691 0.166534 3.294310 7.478682 0.630106 4.298576 -0.520820 4.850359 -1.906868 3.703535 0.642956 0.095804 0.912022 3.017681 0.970514 -4.159866 3.728087 5.339334 -0.534275 6.099788 -1.058004 -3.376343 0.074322 -2.502549 -3.828525 4.079194 -3.817338 3.066385 3.758854 0.126184 -0.209705 0.794440 0.542908 0.603312 2.824967 -1.691848 -0.363025 4.726036 5.850094 4.841812 0.140040 2.853056 -1.874943 -1.875646 0.941345 2.538610 2.601745 0.818493 2.001762 -1.504150 -5.121422 -2.077939 -3.218816 -1.555148 2.818129 -3.717139 0.848430 1.743459 -3.544089 -1.686204 -3.022983 1.322599 5.325572 0.019403 -2.363156 2.281242 2.034251 -0.691691 1.692895 0.490877 -0.442123 -0.139856 -0.231222 -1.345917 -4.373560 -2.457687 1.902769 2.554892 -0.102477 0.633765 0.408910 -2.869209 -4.306849 2.753059 0.237324 3.751604 4.559118 2.903186 7.721194 -0.245452
等 2.982921 4.791455 2.944515 0.965426 -1.126665 -5.380019 7.871552 -2.243813 4.859975 2.278372 -2.107506 7.086661 8.604663 7.427149 0.386214 -4.511481 1.133608 7.044479 -7.876643 5.125673 -2.828171 1.388274 0.505288 -2.151422 0.647397 0.729689 -3.312129 -3.753613 3.008544 5.962400 9.083606 5.822006 -6.608656 2.066584 2.946049 4.469409 4.078956 1.333668 -4.628463 -9.126775 4.555345 3.461737 -0.793502 5.020624 -6.473683 -3.116279 -1.139692 13.893019 -1.632906 -1.549413 0.934045 -0.808196 -4.471865 -1.257508 6.809764 -5.039523 -2.941386 -0.365266 -4.901476 4.588427 0.321083 -3.656674 -12.547357 6.889401 -0.344691 -1.308058 1.814928 -0.880934 -2.842642 3.055007 -0.298362 -5.152034 -11.288449 1.078347 4.064833 -0.899299 -9.321260 -0.704719 2.619681 2.033150 -8.135474 1.049536 3.878911 -2.088639 4.283716 5.787153 8.274955 -10.266404 1.776316 -3.183801 -5.431088 -1.724559 -3.355825 6.376603 -6.195722 2.248977 5.004128 4.776530 2.775331 1.030629
跃层 0.484180 0.581386 -0.078117 0.165752 -0.515511 0.391558 0.383554 0.348975 -0.134753 0.337744 0.558166 -0.568132 0.298435 0.355781 0.165518 0.595167 0.042670 0.241288 -0.301134 -0.099294 -0.445760 0.292497 0.334743 -0.039142 0.048528 -0.120240 -0.371036 0.087053 -0.510960 0.966893 -0.134334 -0.286402 -0.197843 0.134818 -0.046764 -0.135124 -0.105296 -0.014570 0.458766 -0.106148 0.141040 0.566577 0.539174 -0.029905 -0.230581 -0.014536 -0.239407 0.192579 -0.006695 0.873421 0.001056 0.078698 -0.441605 0.070813 0.232349 -0.046514 -0.198372 -0.237351 0.192815 -0.024533 0.206191 0.304660 -0.998389 -0.232303 0.231516 -0.547748 -0.018939 0.206742 0.188880 -0.326935 0.245444 -0.061241 0.937678 0.396752 0.298712 -0.254205 -0.093341 0.070776 0.533218 -0.494476 0.213322 -0.045751 0.140515 -0.155427 -0.377380 -0.182151 0.395173 -0.118195 -0.291164 0.124875 0.951064 -0.261167 -0.031639 0.373802 0.579503 0.697911 0.481397 0.110971 0.463324 -0.055706
支气管炎 -0.175036 1.955022 -1.144867 1.412026 2.034309 -2.659385 0.384129 -1.936624 -4.213322 -1.214600 -0.033747 1.522915 0.340791 -2.264235 -0.083657 -0.134736 -1.458675 -0.153926 -0.790994 1.258621 3.978546 2.077852 -2.893244 1.921294 -2.192242 0.383629 -1.766367 -1.003846 2.201683 1.622828 1.769241 -0.366533 -1.375379 -0.626533 0.600856 1.072909 0.278831 -0.675952 0.677062 -1.502028 2.284917 -0.084792 -1.543449 0.799144 0.152534 2.582237 -1.580071 1.063467 -0.516065 -0.403371 0.150020 -3.177159 -1.660814 -1.136793 -1.020651 -0.907811 -1.514468 -2.233130 3.251844 2.775164 0.960126 1.501234 -0.993329 3.923894 1.958621 -1.968128 3.293120 -1.626890 -0.177911 0.118772 0.404011 2.546273 2.805305 -1.499170 1.333793 1.412088 -2.427768 -2.815207 -0.234511 1.494102 -0.274852 0.513934 0.867071 -0.025412 -0.732525 -0.132519 -1.607800 -3.332812 -1.933470 -4.067369 -1.858203 -0.087169 3.561607 -2.903878 -0.210292 1.459130 -2.153210 0.032320 0.318590 -0.914071
生理盐水 0.006984 0.146200 -0.138212 0.260273 -0.100944 -0.033605 0.008948 0.003958 -0.087068 0.009294 -0.213996 0.010148 0.049687 -0.001418 -0.086665 -0.002701 0.056967 0.114447 0.093192 -0.029188 -0.102275 0.059466 -0.082003 0.095924 -0.066187 0.125872 -0.084132 -0.064130 -0.067074 0.221507 0.126705 -0.098354 -0.018595 -0.140895 0.021884 -0.105980 0.130099 0.028467 0.016384 -0.108771 -0.013180 0.074675 -0.060192 -0.053359 0.176307 0.192392 -0.116087 0.116507 0.028855 0.016615 -0.088962 -0.145077 0.008290 -0.082979 0.223525 -0.076842 0.002074 -0.133037 -0.118085 0.155596 0.145325 0.133914 -0.041533 0.116175 0.102514 -0.075520 0.119811 0.038004 -0.095147 0.065285 0.151229 -0.060061 0.069562 -0.219745 0.260475 -0.045591 -0.039313 -0.027045 -0.119737 0.021611 -0.138050 -0.120694 0.198239 -0.150162 0.019416 -0.118881 -0.006119 0.061224 -0.024569 -0.210381 -0.164544 -0.000966 0.033772 -0.241909 0.120020 0.080971 -0.143913 -0.027966 -0.204022 -0.187412
椎 -0.025214 0.215478 -0.407430 0.292427 0.027829 -0.296929 0.315026 -0.740039 -1.170974 0.052444 -0.105000 0.374535 0.131414 -0.434616 0.487904 -0.412473 -0.059807 0.406707 0.135749 -0.120214 0.128823 0.976328 0.080661 0.127784 -0.877066 -0.253049 -0.319152 -0.323742 0.378233 0.157972 0.707597 -0.038636 -0.410344 -0.250703 -0.221622 -0.189859 0.165850 0.153933 0.915036 -0.873417 -0.475775 0.340183 -0.565295 0.068288 0.260357 0.956954 0.161648 0.127916 0.043325 -0.004200 0.260899 -0.388100 0.149291 0.369225 0.209998 1.038805 -0.158557 -0.675974 0.968332 0.470698 -0.133139 0.354660 -0.890890 0.849571 0.145463 -1.328457 0.609764 0.197381 0.614598 0.376482 -0.342538 0.852584 0.524309 -0.558167 0.079896 0.061606 -0.164664 -0.946891 -0.204414 0.479625 0.053936 -0.361689 0.002773 -0.111045 0.115849 0.641616 -0.218304 -0.364989 -0.386536 -1.232137 -0.256357 -0.290321 0.507770 -0.580496 0.198387 -0.106141 0.043695 -0.637814 0.378109 -0.289472
